{"learner":{"attributes":{"scikit_learn":"{\"_estimator_type\": \"classifier\"}"},"feature_names":["user_age","user_gender","user_height","user_weight","user_daily_calories_intake","user_resting_heart_rate","user_VO2_max","user_body_fat","user_bmi","user_workout_type","buddy_age","buddy_gender","buddy_height","buddy_weight","buddy_daily_calories_intake","buddy_resting_heart_rate","buddy_VO2_max","buddy_body_fat","buddy_bmi","buddy_workout_type","is_same_gender","is_same_workout","compatibility_score"],"feature_types":["int","int","int","float","int","int","float","float","float","int","int","int","int","float","int","int","float","float","float","int","int","int","float"],"gradient_booster":{"model":{"gbtree_model_param":{"num_parallel_tree":"1","num_trees":"100"},"iteration_indptr":[0,1,2,3,4,5,6,7,8,9,10,11,12,13,14,15,16,17,18,19,20,21,22,23,24,25,26,27,28,29,30,31,32,33,34,35,36,37,38,39,40,41,42,43,44,45,46,47,48,49,50,51,52,53,54,55,56,57,58,59,60,61,62,63,64,65,66,67,68,69,70,71,72,73,74,75,76,77,78,79,80,81,82,83,84,85,86,87,88,89,90,91,92,93,94,95,96,97,98,99,100],"tree_info":[0,0,0,0,0,0,0,0,0,0,0,0,0,0,0,0,0,0,0,0,0,0,0,0,0,0,0,0,0,0,0,0,0,0,0,0,0,0,0,0,0,0,0,0,0,0,0,0,0,0,0,0,0,0,0,0,0,0,0,0,0,0,0,0,0,0,0,0,0,0,0,0,0,0,0,0,0,0,0,0,0,0,0,0,0,0,0,0,0,0,0,0,0,0,0,0,0,0,0,0],"trees":[{"base_weights":[-1.11629205E-7,-1.0950603E0,1.0203017E0,-9.652465E-2,-3.3025736E-1,8.691729E-1,8.357351E-2,-1.8093906E-2,-1.6327793E-2,4.294358E-2,4.4011083E-2],"categories":[],"categories_nodes":[],"categories_segments":[],"categories_sizes":[],"default_left":[0,0,0,0,0,0,0,0,0,0,0],"id":0,"left_children":[1,3,5,-1,7,9,-1,-1,-1,-1,-1],"loss_changes":[2.672572E5,7.371634E4,1.2184422E4,0E0,6.932129E0,1.06796875E1,0E0,0E0,0E0,0E0,0E0],"parents":[2147483647,0,0,1,1,2,2,4,4,5,5],"right_children":[2,4,6,-1,8,10,-1,-1,-1,-1,-1],"split_conditions":[3E0,1.5E0,5E0,-9.652465E-2,5.4E1,2.42E1,8.357351E-2,-1.8093906E-2,-1.6327793E-2,4.294358E-2,4.4011083E-2],"split_indices":[22,22,22,0,5,17,0,0,0,0,0],"split_type":[0,0,0,0,0,0,0,0,0,0,0],"sum_hessian":[2.3919884E5,1.1537265E5,1.2382619E5,5.5139504E4,6.023315E4,1.0050293E5,2.3323258E4,6.3018286E3,5.393132E4,5.2051758E4,4.8451176E4],"tree_param":{"num_deleted":"0","num_feature":"23","num_nodes":"11","size_leaf_vector":"1"}},{"base_weights":[-7.595443E-5,-9.2243694E-2,5.490951E-1,-3.139581E-1,9.681625E-1,-1.7202266E-2,-1.552182E-2,4.123934E-2,7.9291E-2],"categories":[],"categories_nodes":[],"categories_segments":[],"categories_sizes":[],"default_left":[0,0,0,0,0,0,0,0,0],"id":1,"left_children":[1,-1,3,5,7,-1,-1,-1,-1],"loss_changes":[2.4211452E5,0E0,6.660673E4,6.2714844E0,1.0976805E4,0E0,0E0,0E0,0E0],"parents":[2147483647,0,0,2,2,3,3,4,4],"right_children":[2,-1,4,6,8,-1,-1,-1,-1],"split_conditions":[1.5E0,-9.2243694E-2,3E0,5.4E1,5E0,-1.7202266E-2,-1.552182E-2,4.123934E-2,7.9291E-2],"split_indices":[22,0,22,5,22,0,0,0,0],"split_type":[0,0,0,0,0,0,0,0,0],"sum_hessian":[2.3897956E5,5.482083E4,1.8415873E5,6.0193266E4,1.2396547E5,6.297212E3,5.389605E4,1.0061275E5,2.3352719E4],"tree_param":{"num_deleted":"0","num_feature":"23","num_nodes":"9","size_leaf_vector":"1"}},{"base_weights":[-1.6752152E-4,-8.852122E-2,5.218595E-1,-2.9849213E-1,9.199909E-1,-1.4810442E-2,-1.7249232E-2,3.917068E-2,7.548266E-2],"categories":[],"categories_nodes":[],"categories_segments":[],"categories_sizes":[],"default_left":[0,0,0,0,0,0,0,0,0],"id":2,"left_children":[1,-1,3,5,7,-1,-1,-1,-1],"loss_changes":[2.2028044E5,0E0,6.012331E4,6.283203E0,9.979914E3,0E0,0E0,0E0,0E0],"parents":[2147483647,0,0,2,2,3,3,4,4],"right_children":[2,-1,4,6,8,-1,-1,-1,-1],"split_conditions":[1.5E0,-8.852122E-2,3E0,9.93E1,5E0,-1.4810442E-2,-1.7249232E-2,3.917068E-2,7.548266E-2],"split_indices":[22,0,22,13,22,0,0,0,0],"split_type":[0,0,0,0,0,0,0,0,0],"sum_hessian":[2.3836527E5,5.428292E4,1.8408233E5,6.014778E4,1.23934555E5,5.7339164E4,2.8086167E3,1.0062919E5,2.3305365E4],"tree_param":{"num_deleted":"0","num_feature":"23","num_nodes":"9","size_leaf_vector":"1"}},{"base_weights":[-2.6949684E-4,-8.525774E-2,4.964016E-1,-2.8381017E-1,8.752761E-1,-1.3924705E-2,-1.5124834E-2,3.7236184E-2,7.206533E-2],"categories":[],"categories_nodes":[],"categories_segments":[],"categories_sizes":[],"default_left":[0,0,0,0,0,0,0,0,0],"id":3,"left_children":[1,-1,3,5,7,-1,-1,-1,-1],"loss_changes":[2.0103836E5,0E0,5.4348812E4,5.8862305E0,9.14432E3,0E0,0E0,0E0,0E0],"parents":[2147483647,0,0,2,2,3,3,4,4],"right_children":[2,-1,4,6,8,-1,-1,-1,-1],"split_conditions":[1.5E0,-8.525774E-2,3E0,8.3E1,5E0,-1.3924705E-2,-1.5124834E-2,3.7236184E-2,7.206533E-2],"split_indices":[22,0,22,15,22,0,0,0,0],"split_type":[0,0,0,0,0,0,0,0,0],"sum_hessian":[2.3741666E5,5.356065E4,1.8385602E5,6.0097727E4,1.2375829E5,4.6799676E4,1.3298051E4,1.005656E5,2.3192693E4],"tree_param":{"num_deleted":"0","num_feature":"23","num_nodes":"9","size_leaf_vector":"1"}},{"base_weights":[-3.783445E-4,-8.237623E-2,4.725316E-1,-2.6986784E-1,8.3359635E-1,-1.4941688E-2,-1.3323921E-2,3.5421945E-2,6.897388E-2],"categories":[],"categories_nodes":[],"categories_segments":[],"categories_sizes":[],"default_left":[0,0,0,0,0,0,0,0,0],"id":4,"left_children":[1,-1,3,5,7,-1,-1,-1,-1],"loss_changes":[1.8397984E5,0E0,4.9189125E4,5.8149414E0,8.433922E3,0E0,0E0,0E0,0E0],"parents":[2147483647,0,0,2,2,3,3,4,4],"right_children":[2,-1,4,6,8,-1,-1,-1,-1],"split_conditions":[1.5E0,-8.237623E-2,3E0,5.4E1,5E0,-1.4941688E-2,-1.3323921E-2,3.5421945E-2,6.897388E-2],"split_indices":[22,0,22,5,22,0,0,0,0],"split_type":[0,0,0,0,0,0,0,0,0],"sum_hessian":[2.36187E5,5.2684457E4,1.8350253E5,6.0043992E4,1.2345855E5,6.280848E3,5.3763145E4,1.0043377E5,2.3024771E4],"tree_param":{"num_deleted":"0","num_feature":"23","num_nodes":"9","size_leaf_vector":"1"}},{"base_weights":[-4.9128995E-4,-7.981598E-2,4.5008904E-1,-2.5662318E-1,7.946004E-1,-7.4487473E-3,-1.2876481E-2,3.3716097E-2,6.615656E-2],"categories":[],"categories_nodes":[],"categories_segments":[],"categories_sizes":[],"default_left":[0,0,0,0,0,0,0,0,0],"id":5,"left_children":[1,-1,3,5,7,-1,-1,-1,-1],"loss_changes":[1.6877866E5,0E0,4.4565746E4,5.8151855E0,7.8218594E3,0E0,0E0,0E0,0E0],"parents":[2147483647,0,0,2,2,3,3,4,4],"right_children":[2,-1,4,6,8,-1,-1,-1,-1],"split_conditions":[1.5E0,-7.981598E-2,3E0,4.51E1,5E0,-7.4487473E-3,-1.2876481E-2,3.3716097E-2,6.615656E-2],"split_indices":[22,0,22,13,22,0,0,0,0],"split_type":[0,0,0,0,0,0,0,0,0],"sum_hessian":[2.347229E5,5.168097E4,1.8304194E5,5.998735E4,1.2305458E5,5.0228714E2,5.9485062E4,1.0024414E5,2.2810438E4],"tree_param":{"num_deleted":"0","num_feature":"23","num_nodes":"9","size_leaf_vector":"1"}},{"base_weights":[-6.0624216E-4,-7.7528566E-2,4.2893746E-1,-2.4403787E-1,7.5799453E-1,-1.2092945E-2,-1.4421441E-2,3.210854E-2,6.3571736E-2],"categories":[],"categories_nodes":[],"categories_segments":[],"categories_sizes":[],"default_left":[0,0,0,0,0,0,0,0,0],"id":6,"left_children":[1,-1,3,5,7,-1,-1,-1,-1],"loss_changes":[1.5517105E5,0E0,4.041273E4,5.7268066E0,7.2878984E3,0E0,0E0,0E0,0E0],"parents":[2147483647,0,0,2,2,3,3,4,4],"right_children":[2,-1,4,6,8,-1,-1,-1,-1],"split_conditions":[1.5E0,-7.7528566E-2,3E0,9.93E1,5E0,-1.2092945E-2,-1.4421441E-2,3.210854E-2,6.3571736E-2],"split_indices":[22,0,22,13,22,0,0,0,0],"split_type":[0,0,0,0,0,0,0,0,0],"sum_hessian":[2.3306534E5,5.057347E4,1.8249186E5,5.992852E4,1.2256334E5,5.7130668E4,2.797852E3,1.0000591E5,2.2557438E4],"tree_param":{"num_deleted":"0","num_feature":"23","num_nodes":"9","size_leaf_vector":"1"}},{"base_weights":[-7.217485E-4,-7.547485E-2,4.089597E-1,-2.3207678E-1,7.235303E-1,-1.1445063E-2,-1.306315E-2,3.0590564E-2,6.118555E-2],"categories":[],"categories_nodes":[],"categories_segments":[],"categories_sizes":[],"default_left":[0,0,0,0,0,0,0,0,0],"id":7,"left_children":[1,-1,3,5,7,-1,-1,-1,-1],"loss_changes":[1.4294089E5,0E0,3.667424E4,5.4890137E0,6.816617E3,0E0,0E0,0E0,0E0],"parents":[2147483647,0,0,2,2,3,3,4,4],"right_children":[2,-1,4,6,8,-1,-1,-1,-1],"split_conditions":[1.5E0,-7.547485E-2,3E0,8.7E1,5E0,-1.1445063E-2,-1.306315E-2,3.0590564E-2,6.118555E-2],"split_indices":[22,0,22,15,22,0,0,0,0],"split_type":[0,0,0,0,0,0,0,0,0],"sum_hessian":[2.3125011E5,4.9382285E4,1.8186783E5,5.9868074E4,1.2199975E5,5.400145E4,5.8666265E3,9.972718E4,2.2272568E4],"tree_param":{"num_deleted":"0","num_feature":"23","num_nodes":"9","size_leaf_vector":"1"}},{"base_weights":[-8.365006E-4,-7.3622786E-2,3.9005482E-1,-2.2070582E-1,6.9099694E-1,-1.2427849E-2,-1.08724125E-2,2.9154617E-2,5.8970165E-2],"categories":[],"categories_nodes":[],"categories_segments":[],"categories_sizes":[],"default_left":[0,0,0,0,0,0,0,0,0],"id":8,"left_children":[1,-1,3,5,7,-1,-1,-1,-1],"loss_changes":[1.3190938E5,0E0,3.3302504E4,5.3725586E0,6.396082E3,0E0,0E0,0E0,0E0],"parents":[2147483647,0,0,2,2,3,3,4,4],"right_children":[2,-1,4,6,8,-1,-1,-1,-1],"split_conditions":[1.5E0,-7.3622786E-2,3E0,5.4E1,5E0,-1.2427849E-2,-1.08724125E-2,2.9154617E-2,5.8970165E-2],"split_indices":[22,0,22,5,22,0,0,0,0],"split_type":[0,0,0,0,0,0,0,0,0],"sum_hessian":[2.2930861E5,4.8125184E4,1.8118344E5,5.980656E4,1.21376875E5,6.2548247E3,5.3551734E4,9.941509E4,2.1961781E4],"tree_param":{"num_deleted":"0","num_feature":"23","num_nodes":"9","size_leaf_vector":"1"}},{"base_weights":[-9.494225E-4,-7.194599E-2,3.7213558E-1,-2.0989488E-1,6.60215E-1,-5.3626965E-3,-1.0538011E-2,2.7794162E-2,5.690257E-2],"categories":[],"categories_nodes":[],"categories_segments":[],"categories_sizes":[],"default_left":[0,0,0,0,0,0,0,0,0],"id":9,"left_children":[1,-1,3,5,7,-1,-1,-1,-1],"loss_changes":[1.219271E5,0E0,3.025664E4,5.2839355E0,6.017047E3,0E0,0E0,0E0,0E0],"parents":[2147483647,0,0,2,2,3,3,4,4],"right_children":[2,-1,4,6,8,-1,-1,-1,-1],"split_conditions":[1.5E0,-7.194599E-2,3E0,4.51E1,5E0,-5.3626965E-3,-1.0538011E-2,2.7794162E-2,5.690257E-2],"split_indices":[22,0,22,13,22,0,0,0,0],"split_type":[0,0,0,0,0,0,0,0,0],"sum_hessian":[2.2726825E5,4.681763E4,1.8045062E5,5.9744395E4,1.2070623E5,5.0051175E2,5.9243883E4,9.907594E4,2.1630285E4],"tree_param":{"num_deleted":"0","num_feature":"23","num_nodes":"9","size_leaf_vector":"1"}},{"base_weights":[-1.059882E-3,-7.0422396E-2,3.5512555E-1,-1.996144E-1,6.310297E-1,-9.728735E-3,-1.08668385E-2,2.6503442E-2,5.4963488E-2],"categories":[],"categories_nodes":[],"categories_segments":[],"categories_sizes":[],"default_left":[0,0,0,0,0,0,0,0,0],"id":10,"left_children":[1,-1,3,5,7,-1,-1,-1,-1],"loss_changes":[1.1286817E5,0E0,2.7501197E4,5.288574E0,5.6722383E3,0E0,0E0,0E0,0E0],"parents":[2147483647,0,0,2,2,3,3,4,4],"right_children":[2,-1,4,6,8,-1,-1,-1,-1],"split_conditions":[1.5E0,-7.0422396E-2,3E0,8.3E1,5E0,-9.728735E-3,-1.08668385E-2,2.6503442E-2,5.4963488E-2],"split_indices":[22,0,22,15,22,0,0,0,0],"split_type":[0,0,0,0,0,0,0,0,0],"sum_hessian":[2.2515295E5,4.5473098E4,1.7967986E5,5.9682E4,1.1999786E5,4.6477234E4,1.3204767E4,9.871522E4,2.1282637E4],"tree_param":{"num_deleted":"0","num_feature":"23","num_nodes":"9","size_leaf_vector":"1"}},{"base_weights":[-1.1671085E-3,-6.9033556E-2,3.389582E-1,-1.8983728E-1,6.0330844E-1,-9.387699E-3,-1.1615414E-2,2.5277436E-2,5.3136785E-2],"categories":[],"categories_nodes":[],"categories_segments":[],"categories_sizes":[],"default_left":[0,0,0,0,0,0,0,0,0],"id":11,"left_children":[1,-1,3,5,7,-1,-1,-1,-1],"loss_changes":[1.0462578E5,0E0,2.500543E4,5.2316895E0,5.355914E3,0E0,0E0,0E0,0E0],"parents":[2147483647,0,0,2,2,3,3,4,4],"right_children":[2,-1,4,6,8,-1,-1,-1,-1],"split_conditions":[1.5E0,-6.9033556E-2,3E0,9.93E1,5E0,-9.387699E-3,-1.1615414E-2,2.5277436E-2,5.3136785E-2],"split_indices":[22,0,22,13,22,0,0,0,0],"split_type":[0,0,0,0,0,0,0,0,0],"sum_hessian":[2.229836E5,4.4103297E4,1.788803E5,5.961972E4,1.1926058E5,5.683714E4,2.7825784E3,9.8337766E4,2.0922812E4],"tree_param":{"num_deleted":"0","num_feature":"23","num_nodes":"9","size_leaf_vector":"1"}},{"base_weights":[-1.2707352E-3,-6.77638E-2,3.235745E-1,-1.8053813E-1,5.769353E-1,-1.0371001E-2,-8.8697625E-3,2.4111671E-2,5.1408764E-2],"categories":[],"categories_nodes":[],"categories_segments":[],"categories_sizes":[],"default_left":[0,0,0,0,0,0,0,0,0],"id":12,"left_children":[1,-1,3,5,7,-1,-1,-1,-1],"loss_changes":[9.7108445E4,0E0,2.2742465E4,4.9952393E0,5.0635234E3,0E0,0E0,0E0,0E0],"parents":[2147483647,0,0,2,2,3,3,4,4],"right_children":[2,-1,4,6,8,-1,-1,-1,-1],"split_conditions":[1.5E0,-6.77638E-2,3E0,5.4E1,5E0,-1.0371001E-2,-8.8697625E-3,2.4111671E-2,5.1408764E-2],"split_indices":[22,0,22,5,22,0,0,0,0],"split_type":[0,0,0,0,0,0,0,0,0],"sum_hessian":[2.2077822E5,4.271835E4,1.7805988E5,5.9557816E4,1.18502055E5,6.227487E3,5.333033E4,9.794779E4,2.0554264E4],"tree_param":{"num_deleted":"0","num_feature":"23","num_nodes":"9","size_leaf_vector":"1"}},{"base_weights":[-1.3702858E-3,-6.659981E-2,3.089225E-1,-1.7169271E-1,5.518098E-1,-8.341867E-3,-9.438526E-3,2.300219E-2,4.9767833E-2],"categories":[],"categories_nodes":[],"categories_segments":[],"categories_sizes":[],"default_left":[0,0,0,0,0,0,0,0,0],"id":13,"left_children":[1,-1,3,5,7,-1,-1,-1,-1],"loss_changes":[9.023757E4,0E0,2.0688691E4,4.9020996E0,4.7914453E3,0E0,0E0,0E0,0E0],"parents":[2147483647,0,0,2,2,3,3,4,4],"right_children":[2,-1,4,6,8,-1,-1,-1,-1],"split_conditions":[1.5E0,-6.659981E-2,3E0,8.3E1,5E0,-8.341867E-3,-9.438526E-3,2.300219E-2,4.9767833E-2],"split_indices":[22,0,22,15,22,0,0,0,0],"split_type":[0,0,0,0,0,0,0,0,0],"sum_hessian":[2.1855252E5,4.1327004E4,1.7722552E5,5.949654E4,1.1772897E5,4.6334043E4,1.3162495E4,9.754897E4,2.0179998E4],"tree_param":{"num_deleted":"0","num_feature":"23","num_nodes":"9","size_leaf_vector":"1"}},{"base_weights":[-1.4655596E-3,-6.553014E-2,2.9495567E-1,-1.6327854E-1,5.2784383E-1,-3.2596872E-3,-8.205334E-3,2.1945447E-2,4.8204098E-2],"categories":[],"categories_nodes":[],"categories_segments":[],"categories_sizes":[],"default_left":[0,0,0,0,0,0,0,0,0],"id":14,"left_children":[1,-1,3,5,7,-1,-1,-1,-1],"loss_changes":[8.394508E4,0E0,1.8823336E4,4.8172607E0,4.536789E3,0E0,0E0,0E0,0E0],"parents":[2147483647,0,0,2,2,3,3,4,4],"right_children":[2,-1,4,6,8,-1,-1,-1,-1],"split_conditions":[1.5E0,-6.553014E-2,3E0,4.51E1,5E0,-3.2596872E-3,-8.205334E-3,2.1945447E-2,4.8204098E-2],"split_indices":[22,0,22,13,22,0,0,0,0],"split_type":[0,0,0,0,0,0,0,0,0],"sum_hessian":[2.1632002E5,3.9936773E4,1.7638323E5,5.943612E4,1.1694711E5,4.9828586E2,5.8937836E4,9.714449E4,1.9802617E4],"tree_param":{"num_deleted":"0","num_feature":"23","num_nodes":"9","size_leaf_vector":"1"}},{"base_weights":[-1.5561812E-3,-6.4544946E-2,2.8163263E-1,-1.5527403E-1,5.0495976E-1,-7.6642195E-3,-9.793E-3,2.0938266E-2,4.6709064E-2],"categories":[],"categories_nodes":[],"categories_segments":[],"categories_sizes":[],"default_left":[0,0,0,0,0,0,0,0,0],"id":15,"left_children":[1,-1,3,5,7,-1,-1,-1,-1],"loss_changes":[7.817171E4,0E0,1.7127988E4,4.7648926E0,4.297215E3,0E0,0E0,0E0,0E0],"parents":[2147483647,0,0,2,2,3,3,4,4],"right_children":[2,-1,4,6,8,-1,-1,-1,-1],"split_conditions":[1.5E0,-6.4544946E-2,3E0,9.93E1,5E0,-7.6642195E-3,-9.793E-3,2.0938266E-2,4.6709064E-2],"split_indices":[22,0,22,13,22,0,0,0,0],"split_type":[0,0,0,0,0,0,0,0,0],"sum_hessian":[2.1409231E5,3.85541E4,1.7553822E5,5.9376715E4,1.161615E5,5.6606453E4,2.7702617E3,9.673713E4,1.9424367E4],"tree_param":{"num_deleted":"0","num_feature":"23","num_nodes":"9","size_leaf_vector":"1"}},{"base_weights":[-1.6420844E-3,-6.3635655E-2,2.6891598E-1,-1.476593E-1,4.8308915E-1,-7.2672353E-3,-9.08425E-3,1.9977782E-2,4.527545E-2],"categories":[],"categories_nodes":[],"categories_segments":[],"categories_sizes":[],"default_left":[0,0,0,0,0,0,0,0,0],"id":16,"left_children":[1,-1,3,5,7,-1,-1,-1,-1],"loss_changes":[7.286568E4,0E0,1.5586309E4,4.6451416E0,4.070871E3,0E0,0E0,0E0,0E0],"parents":[2147483647,0,0,2,2,3,3,4,4],"right_children":[2,-1,4,6,8,-1,-1,-1,-1],"split_conditions":[1.5E0,-6.3635655E-2,3E0,8.8E1,5E0,-7.2672353E-3,-9.08425E-3,1.9977782E-2,4.527545E-2],"split_indices":[22,0,22,15,22,0,0,0,0],"split_type":[0,0,0,0,0,0,0,0,0],"sum_hessian":[2.1187938E5,3.7184477E4,1.746949E5,5.931846E4,1.1537644E5,5.554525E4,3.7732095E3,9.632927E4,1.9047166E4],"tree_param":{"num_deleted":"0","num_feature":"23","num_nodes":"9","size_leaf_vector":"1"}},{"base_weights":[-1.7229597E-3,-6.279483E-2,2.5677207E-1,-1.4041494E-1,4.621711E-1,-8.324823E-3,-6.8683536E-3,1.9061392E-2,4.3897007E-2],"categories":[],"categories_nodes":[],"categories_segments":[],"categories_sizes":[],"default_left":[0,0,0,0,0,0,0,0,0],"id":17,"left_children":[1,-1,3,5,7,-1,-1,-1,-1],"loss_changes":[6.798153E4,0E0,1.4183731E4,4.6881104E0,3.8562656E3,0E0,0E0,0E0,0E0],"parents":[2147483647,0,0,2,2,3,3,4,4],"right_children":[2,-1,4,6,8,-1,-1,-1,-1],"split_conditions":[1.5E0,-6.279483E-2,3E0,5.4E1,5E0,-8.324823E-3,-6.8683536E-3,1.9061392E-2,4.3897007E-2],"split_indices":[22,0,22,5,22,0,0,0,0],"split_type":[0,0,0,0,0,0,0,0,0],"sum_hessian":[2.0968966E5,3.5832527E4,1.7385714E5,5.9261504E4,1.1459563E5,6.195034E3,5.306647E4,9.592295E4,1.8672676E4],"tree_param":{"num_deleted":"0","num_feature":"23","num_nodes":"9","size_leaf_vector":"1"}},{"base_weights":[-1.7988665E-3,-6.2015932E-2,2.4517024E-1,-1.3352318E-1,4.4215128E-1,-6.65031E-3,-1.4305152E-2,1.8186737E-2,4.2568315E-2],"categories":[],"categories_nodes":[],"categories_segments":[],"categories_sizes":[],"default_left":[0,0,0,0,0,0,0,0,0],"id":18,"left_children":[1,-1,3,5,7,-1,-1,-1,-1],"loss_changes":[6.3479164E4,0E0,1.2907239E4,4.632202E0,3.6521914E3,0E0,0E0,0E0,0E0],"parents":[2147483647,0,0,2,2,3,3,4,4],"right_children":[2,-1,4,6,8,-1,-1,-1,-1],"split_conditions":[1.5E0,-6.2015932E-2,3E0,3.19E1,5E0,-6.65031E-3,-1.4305152E-2,1.8186737E-2,4.2568315E-2],"split_indices":[22,0,22,8,22,0,0,0,0],"split_type":[0,0,0,0,0,0,0,0,0],"sum_hessian":[2.0753028E5,3.450216E4,1.7302812E5,5.9205895E4,1.1382223E5,5.9007832E4,1.9806203E2,9.551994E4,1.8302287E4],"tree_param":{"num_deleted":"0","num_feature":"23","num_nodes":"9","size_leaf_vector":"1"}},{"base_weights":[-1.8697291E-3,-6.1293233E-2,2.3408236E-1,-1.2696643E-1,4.2298052E-1,-4.7533545E-3,-6.4707487E-3,1.735163E-2,4.1284703E-2],"categories":[],"categories_nodes":[],"categories_segments":[],"categories_sizes":[],"default_left":[0,0,0,0,0,0,0,0,0],"id":19,"left_children":[1,-1,3,5,7,-1,-1,-1,-1],"loss_changes":[5.932304E4,0E0,1.1745137E4,4.607971E0,3.4576777E3,0E0,0E0,0E0,0E0],"parents":[2147483647,0,0,2,2,3,3,4,4],"right_children":[2,-1,4,6,8,-1,-1,-1,-1],"split_conditions":[1.5E0,-6.1293233E-2,3E0,1.97E1,5E0,-4.7533545E-3,-6.4707487E-3,1.735163E-2,4.1284703E-2],"split_indices":[22,0,22,18,22,0,0,0,0],"split_type":[0,0,0,0,0,0,0,0,0],"sum_hessian":[2.0540723E5,3.31966E4,1.7221064E5,5.9151766E4,1.13058875E5,4.219563E3,5.4932203E4,9.512169E4,1.7937186E4],"tree_param":{"num_deleted":"0","num_feature":"23","num_nodes":"9","size_leaf_vector":"1"}},{"base_weights":[-1.9352321E-3,-6.0621656E-2,2.2348316E-1,-1.2072866E-1,4.046153E-1,-5.221281E-3,-6.2717283E-3,1.6554106E-2,4.0042162E-2],"categories":[],"categories_nodes":[],"categories_segments":[],"categories_sizes":[],"default_left":[0,0,0,0,0,0,0,0,0],"id":20,"left_children":[1,-1,3,5,7,-1,-1,-1,-1],"loss_changes":[5.5481668E4,0E0,1.0686962E4,4.521057E0,3.271955E3,0E0,0E0,0E0,0E0],"parents":[2147483647,0,0,2,2,3,3,4,4],"right_children":[2,-1,4,6,8,-1,-1,-1,-1],"split_conditions":[1.5E0,-6.0621656E-2,3E0,2.6E1,5E0,-5.221281E-3,-6.2717283E-3,1.6554106E-2,4.0042162E-2],"split_indices":[22,0,22,10,22,0,0,0,0],"split_type":[0,0,0,0,0,0,0,0,0],"sum_hessian":[2.033255E5,3.1918518E4,1.7140697E5,5.9099133E4,1.1230784E5,1.3243134E4,4.5856E4,9.4729484E4,1.7578357E4],"tree_param":{"num_deleted":"0","num_feature":"23","num_nodes":"9","size_leaf_vector":"1"}},{"base_weights":[-1.995703E-3,-5.9996713E-2,2.133486E-1,-1.1479418E-1,3.8701504E-1,-5.5100773E-3,-6.547771E-3,1.5792284E-2,3.883722E-2],"categories":[],"categories_nodes":[],"categories_segments":[],"categories_sizes":[],"default_left":[0,0,0,0,0,0,0,0,0],"id":21,"left_children":[1,-1,3,5,7,-1,-1,-1,-1],"loss_changes":[5.192691E4,0E0,9.723234E3,4.368286E0,3.0944043E3,0E0,0E0,0E0,0E0],"parents":[2147483647,0,0,2,2,3,3,4,4],"right_children":[2,-1,4,6,8,-1,-1,-1,-1],"split_conditions":[1.5E0,-5.9996713E-2,3E0,8.3E1,5E0,-5.5100773E-3,-6.547771E-3,1.5792284E-2,3.883722E-2],"split_indices":[22,0,22,15,22,0,0,0,0],"split_type":[0,0,0,0,0,0,0,0,0],"sum_hessian":[2.012891E5,3.067006E4,1.7061903E5,5.904806E4,1.1157097E5,4.598737E4,1.30606875E4,9.4344336E4,1.7226629E4],"tree_param":{"num_deleted":"0","num_feature":"23","num_nodes":"9","size_leaf_vector":"1"}},{"base_weights":[-2.0509467E-3,-5.9414405E-2,2.0365699E-1,-1.0914858E-1,3.7014365E-1,-6.7158635E-3,-5.3104362E-3,1.5064478E-2,3.7666887E-2],"categories":[],"categories_nodes":[],"categories_segments":[],"categories_sizes":[],"default_left":[0,0,0,0,0,0,0,0,0],"id":22,"left_children":[1,-1,3,5,7,-1,-1,-1,-1],"loss_changes":[4.863366E4,0E0,8.845447E3,4.3512573E0,2.9245146E3,0E0,0E0,0E0,0E0],"parents":[2147483647,0,0,2,2,3,3,4,4],"right_children":[2,-1,4,6,8,-1,-1,-1,-1],"split_conditions":[1.5E0,-5.9414405E-2,3E0,5.4E1,5E0,-6.7158635E-3,-5.3104362E-3,1.5064478E-2,3.7666887E-2],"split_indices":[22,0,22,5,22,0,0,0,0],"split_type":[0,0,0,0,0,0,0,0,0],"sum_hessian":[1.9930128E5,2.9452938E4,1.6984834E5,5.8998543E4,1.108498E5,6.165956E3,5.2832586E4,9.3967125E4,1.688267E4],"tree_param":{"num_deleted":"0","num_feature":"23","num_nodes":"9","size_leaf_vector":"1"}},{"base_weights":[-2.101125E-3,-5.887117E-2,1.9438788E-1,-1.0377793E-1,3.539676E-1,-5.093746E-3,-7.131631E-3,1.4369093E-2,3.6528565E-2],"categories":[],"categories_nodes":[],"categories_segments":[],"categories_sizes":[],"default_left":[0,0,0,0,0,0,0,0,0],"id":23,"left_children":[1,-1,3,5,7,-1,-1,-1,-1],"loss_changes":[4.5579438E4,0E0,8.0458857E3,4.3443604E0,2.761873E3,0E0,0E0,0E0,0E0],"parents":[2147483647,0,0,2,2,3,3,4,4],"right_children":[2,-1,4,6,8,-1,-1,-1,-1],"split_conditions":[1.5E0,-5.887117E-2,3E0,9.93E1,5E0,-5.093746E-3,-7.131631E-3,1.4369093E-2,3.6528565E-2],"split_indices":[22,0,22,13,22,0,0,0,0],"split_type":[0,0,0,0,0,0,0,0,0],"sum_hessian":[1.9736462E5,2.8268467E4,1.6909616E5,5.89506E4,1.1014556E5,5.6201594E4,2.7490093E3,9.359855E4,1.6547012E4],"tree_param":{"num_deleted":"0","num_feature":"23","num_nodes":"9","size_leaf_vector":"1"}},{"base_weights":[-2.1462552E-3,-5.8363795E-2,1.8552229E-1,-9.866887E-2,3.384561E-1,-5.195364E-3,-4.2328318E-3,1.370464E-2,3.542005E-2],"categories":[],"categories_nodes":[],"categories_segments":[],"categories_sizes":[],"default_left":[0,0,0,0,0,0,0,0,0],"id":24,"left_children":[1,-1,3,5,7,-1,-1,-1,-1],"loss_changes":[4.2743984E4,0E0,7.317565E3,4.3150024E0,2.6061504E3,0E0,0E0,0E0,0E0],"parents":[2147483647,0,0,2,2,3,3,4,4],"right_children":[2,-1,4,6,8,-1,-1,-1,-1],"split_conditions":[1.5E0,-5.8363795E-2,3E0,8.29E1,5E0,-5.195364E-3,-4.2328318E-3,1.370464E-2,3.542005E-2],"split_indices":[22,0,22,3,22,0,0,0,0],"split_type":[0,0,0,0,0,0,0,0,0],"sum_hessian":[1.9548114E5,2.711763E4,1.6836352E5,5.890427E4,1.0945924E5,4.2870824E4,1.6033443E4,9.3239164E4,1.6220082E4],"tree_param":{"num_deleted":"0","num_feature":"23","num_nodes":"9","size_leaf_vector":"1"}},{"base_weights":[-2.186244E-3,-5.7889428E-2,1.7704256E-1,-9.380859E-2,3.2358077E-1,-5.221058E-5,-4.7296924E-3,1.3069729E-2,3.4339443E-2],"categories":[],"categories_nodes":[],"categories_segments":[],"categories_sizes":[],"default_left":[0,0,0,0,0,0,0,0,0],"id":25,"left_children":[1,-1,3,5,7,-1,-1,-1,-1],"loss_changes":[4.0109137E4,0E0,6.654152E3,4.2875366E0,2.4570664E3,0E0,0E0,0E0,0E0],"parents":[2147483647,0,0,2,2,3,3,4,4],"right_children":[2,-1,4,6,8,-1,-1,-1,-1],"split_conditions":[1.5E0,-5.7889428E-2,3E0,4.51E1,5E0,-5.221058E-5,-4.7296924E-3,1.3069729E-2,3.4339443E-2],"split_indices":[22,0,22,13,22,0,0,0,0],"split_type":[0,0,0,0,0,0,0,0,0],"sum_hessian":[1.9365228E5,2.6001107E4,1.6765117E5,5.885956E4,1.0879161E5,4.9408362E2,5.8365473E4,9.288941E4,1.5902208E4],"tree_param":{"num_deleted":"0","num_feature":"23","num_nodes":"9","size_leaf_vector":"1"}},{"base_weights":[-2.221511E-3,-5.7445478E-2,1.6893163E-1,-8.9185365E-2,3.093146E-1,-4.434405E-3,-1.1814917E-2,1.2463029E-2,3.3285107E-2],"categories":[],"categories_nodes":[],"categories_segments":[],"categories_sizes":[],"default_left":[0,0,0,0,0,0,0,0,0],"id":26,"left_children":[1,-1,3,5,7,-1,-1,-1,-1],"loss_changes":[3.765841E4,0E0,6.0498833E3,4.28183E0,2.3143916E3,0E0,0E0,0E0,0E0],"parents":[2147483647,0,0,2,2,3,3,4,4],"right_children":[2,-1,4,6,8,-1,-1,-1,-1],"split_conditions":[1.5E0,-5.7445478E-2,3E0,3.19E1,5E0,-4.434405E-3,-1.1814917E-2,1.2463029E-2,3.3285107E-2],"split_indices":[22,0,22,8,22,0,0,0,0],"split_type":[0,0,0,0,0,0,0,0,0],"sum_hessian":[1.9187894E5,2.4919318E4,1.6695962E5,5.881641E4,1.0814321E5,5.8619867E4,1.9654202E2,9.254959E4,1.5593615E4],"tree_param":{"num_deleted":"0","num_feature":"23","num_nodes":"9","size_leaf_vector":"1"}},{"base_weights":[-2.2519578E-3,-5.7029612E-2,1.6117387E-1,-8.478785E-2,2.9563317E-1,-4.1300314E-3,-5.848563E-3,1.1883314E-2,3.225568E-2],"categories":[],"categories_nodes":[],"categories_segments":[],"categories_sizes":[],"default_left":[0,0,0,0,0,0,0,0,0],"id":27,"left_children":[1,-1,3,5,7,-1,-1,-1,-1],"loss_changes":[3.5376953E4,0E0,5.4995503E3,4.1276855E0,2.1779248E3,0E0,0E0,0E0,0E0],"parents":[2147483647,0,0,2,2,3,3,4,4],"right_children":[2,-1,4,6,8,-1,-1,-1,-1],"split_conditions":[1.5E0,-5.7029612E-2,3E0,8.8E1,5E0,-4.1300314E-3,-5.848563E-3,1.1883314E-2,3.225568E-2],"split_indices":[22,0,22,15,22,0,0,0,0],"split_type":[0,0,0,0,0,0,0,0,0],"sum_hessian":[1.9016175E5,2.3872465E4,1.6628928E5,5.8774848E4,1.0751443E5,5.503795E4,3.7368987E3,9.221997E4,1.5294464E4],"tree_param":{"num_deleted":"0","num_feature":"23","num_nodes":"9","size_leaf_vector":"1"}},{"base_weights":[-2.2776835E-3,-5.663971E-2,1.537544E-1,-8.060501E-2,2.8251302E-1,-3.2502662E-3,-4.255471E-3,1.1329408E-2,3.1249994E-2],"categories":[],"categories_nodes":[],"categories_segments":[],"categories_sizes":[],"default_left":[0,0,0,0,0,0,0,0,0],"id":28,"left_children":[1,-1,3,5,7,-1,-1,-1,-1],"loss_changes":[3.3251312E4,0E0,4.998382E3,4.121643E0,2.0474961E3,0E0,0E0,0E0,0E0],"parents":[2147483647,0,0,2,2,3,3,4,4],"right_children":[2,-1,4,6,8,-1,-1,-1,-1],"split_conditions":[1.5E0,-5.663971E-2,3E0,2.6E1,5E0,-3.2502662E-3,-4.255471E-3,1.1329408E-2,3.1249994E-2],"split_indices":[22,0,22,10,22,0,0,0,0],"split_type":[0,0,0,0,0,0,0,0,0],"sum_hessian":[1.885009E5,2.2860553E4,1.6564034E5,5.873482E4,1.0690553E5,1.316322E4,4.55716E4,9.190068E4,1.5004851E4],"tree_param":{"num_deleted":"0","num_feature":"23","num_nodes":"9","size_leaf_vector":"1"}},{"base_weights":[-2.2990352E-3,-5.627386E-2,1.466588E-1,-7.66264E-2,2.6993188E-1,-2.3268482E-3,-3.946887E-3,1.0800186E-2,3.026704E-2],"categories":[],"categories_nodes":[],"categories_segments":[],"categories_sizes":[],"default_left":[0,0,0,0,0,0,0,0,0],"id":29,"left_children":[1,-1,3,5,7,-1,-1,-1,-1],"loss_changes":[3.1269248E4,0E0,4.5420376E3,4.0785217E0,1.92294E3,0E0,0E0,0E0,0E0],"parents":[2147483647,0,0,2,2,3,3,4,4],"right_children":[2,-1,4,6,8,-1,-1,-1,-1],"split_conditions":[1.5E0,-5.627386E-2,3E0,1.97E1,5E0,-2.3268482E-3,-3.946887E-3,1.0800186E-2,3.026704E-2],"split_indices":[22,0,22,18,22,0,0,0,0],"split_type":[0,0,0,0,0,0,0,0,0],"sum_hessian":[1.8689634E5,2.188343E4,1.6501292E5,5.869633E4,1.0631659E5,4.18865E3,5.450768E4,9.15918E4,1.4724796E4],"tree_param":{"num_deleted":"0","num_feature":"23","num_nodes":"9","size_leaf_vector":"1"}},{"base_weights":[-2.3158651E-3,-5.5930316E-2,1.3987383E-1,-7.2842404E-2,2.5786933E-1,-4.8520793E-3,-3.5008707E-3,1.0294605E-2,2.9306028E-2],"categories":[],"categories_nodes":[],"categories_segments":[],"categories_sizes":[],"default_left":[0,0,0,0,0,0,0,0,0],"id":30,"left_children":[1,-1,3,5,7,-1,-1,-1,-1],"loss_changes":[2.9419635E4,0E0,4.126586E3,4.003357E0,1.8041191E3,0E0,0E0,0E0,0E0],"parents":[2147483647,0,0,2,2,3,3,4,4],"right_children":[2,-1,4,6,8,-1,-1,-1,-1],"split_conditions":[1.5E0,-5.5930316E-2,3E0,5.4E1,5E0,-4.8520793E-3,-3.5008707E-3,1.0294605E-2,2.9306028E-2],"split_indices":[22,0,22,5,22,0,0,0,0],"split_type":[0,0,0,0,0,0,0,0,0],"sum_hessian":[1.8534775E5,2.0940785E4,1.6440697E5,5.8659324E4,1.0574764E5,6.128508E3,5.2530816E4,9.129334E4,1.4454294E4],"tree_param":{"num_deleted":"0","num_feature":"23","num_nodes":"9","size_leaf_vector":"1"}},{"base_weights":[-2.3284054E-3,-5.5607487E-2,1.3338661E-1,-6.924344E-2,2.4630535E-1,-3.3709512E-3,-5.326119E-3,9.811654E-3,2.8366266E-2],"categories":[],"categories_nodes":[],"categories_segments":[],"categories_sizes":[],"default_left":[0,0,0,0,0,0,0,0,0],"id":31,"left_children":[1,-1,3,5,7,-1,-1,-1,-1],"loss_changes":[2.7692363E4,0E0,3.7484143E3,3.980011E0,1.6908887E3,0E0,0E0,0E0,0E0],"parents":[2147483647,0,0,2,2,3,3,4,4],"right_children":[2,-1,4,6,8,-1,-1,-1,-1],"split_conditions":[1.5E0,-5.5607487E-2,3E0,9.93E1,5E0,-3.3709512E-3,-5.326119E-3,9.811654E-3,2.8366266E-2],"split_indices":[22,0,22,13,22,0,0,0,0],"split_type":[0,0,0,0,0,0,0,0,0],"sum_hessian":[1.8385455E5,2.0032209E4,1.6382233E5,5.8623754E4,1.0519858E5,5.589127E4,2.732484E3,9.10053E4,1.419328E4],"tree_param":{"num_deleted":"0","num_feature":"23","num_nodes":"9","size_leaf_vector":"1"}},{"base_weights":[-2.3369524E-3,-5.5303913E-2,1.2718466E-1,-6.5820806E-2,2.3522095E-1,-3.544321E-3,-2.6137065E-3,9.3503585E-3,2.7447192E-2],"categories":[],"categories_nodes":[],"categories_segments":[],"categories_sizes":[],"default_left":[0,0,0,0,0,0,0,0,0],"id":32,"left_children":[1,-1,3,5,7,-1,-1,-1,-1],"loss_changes":[2.6078176E4,0E0,3.4042437E3,4.016922E0,1.5831147E3,0E0,0E0,0E0,0E0],"parents":[2147483647,0,0,2,2,3,3,4,4],"right_children":[2,-1,4,6,8,-1,-1,-1,-1],"split_conditions":[1.5E0,-5.5303913E-2,3E0,8.29E1,5E0,-3.544321E-3,-2.6137065E-3,9.3503585E-3,2.7447192E-2],"split_indices":[22,0,22,3,22,0,0,0,0],"split_type":[0,0,0,0,0,0,0,0,0],"sum_hessian":[1.8241602E5,1.915718E4,1.6325883E5,5.858962E4,1.0466921E5,4.2640496E4,1.5949122E4,9.0727555E4,1.3941664E4],"tree_param":{"num_deleted":"0","num_feature":"23","num_nodes":"9","size_leaf_vector":"1"}},{"base_weights":[-2.3415904E-3,-5.5018283E-2,1.2125634E-1,-6.2565774E-2,2.2459814E-1,-2.9089616E-3,-3.9004812E-3,8.909809E-3,2.6548335E-2],"categories":[],"categories_nodes":[],"categories_segments":[],"categories_sizes":[],"default_left":[0,0,0,0,0,0,0,0,0],"id":33,"left_children":[1,-1,3,5,7,-1,-1,-1,-1],"loss_changes":[2.4568662E4,0E0,3.0910732E3,3.9624634E0,1.4806592E3,0E0,0E0,0E0,0E0],"parents":[2147483647,0,0,2,2,3,3,4,4],"right_children":[2,-1,4,6,8,-1,-1,-1,-1],"split_conditions":[1.5E0,-5.5018283E-2,3E0,8.3E1,5E0,-2.9089616E-3,-3.9004812E-3,8.909809E-3,2.6548335E-2],"split_indices":[22,0,22,15,22,0,0,0,0],"split_type":[0,0,0,0,0,0,0,0,0],"sum_hessian":[1.810313E5,1.831509E4,1.6271622E5,5.85569E4,1.0415931E5,4.5607637E4,1.2949263E4,9.046E4,1.3699311E4],"tree_param":{"num_deleted":"0","num_feature":"23","num_nodes":"9","size_leaf_vector":"1"}},{"base_weights":[-2.3425473E-3,-5.474936E-2,1.1559033E-1,-5.947027E-2,2.1441942E-1,-2.9496376E-3,-1.0052494E-2,8.489117E-3,2.5669316E-2],"categories":[],"categories_nodes":[],"categories_segments":[],"categories_sizes":[],"default_left":[0,0,0,0,0,0,0,0,0],"id":34,"left_children":[1,-1,3,5,7,-1,-1,-1,-1],"loss_changes":[2.3156082E4,0E0,2.8061628E3,3.9449463E0,1.3833848E3,0E0,0E0,0E0,0E0],"parents":[2147483647,0,0,2,2,3,3,4,4],"right_children":[2,-1,4,6,8,-1,-1,-1,-1],"split_conditions":[1.5E0,-5.474936E-2,3E0,3.19E1,5E0,-2.9496376E-3,-1.0052494E-2,8.489117E-3,2.5669316E-2],"split_indices":[22,0,22,8,22,0,0,0,0],"split_type":[0,0,0,0,0,0,0,0,0],"sum_hessian":[1.7969934E5,1.7505268E4,1.6219406E5,5.8525508E4,1.0366856E5,5.8330188E4,1.9531915E2,9.020249E4,1.3466068E4],"tree_param":{"num_deleted":"0","num_feature":"23","num_nodes":"9","size_leaf_vector":"1"}},{"base_weights":[-2.3399633E-3,-5.4496028E-2,1.1017586E-1,-5.6526873E-2,2.0466842E-1,-2.8882632E-3,-1.8463617E-4,8.08745E-3,2.4809865E-2],"categories":[],"categories_nodes":[],"categories_segments":[],"categories_sizes":[],"default_left":[0,0,0,0,0,0,0,0,0],"id":35,"left_children":[1,-1,3,5,7,-1,-1,-1,-1],"loss_changes":[2.1833383E4,0E0,2.5470278E3,3.8271484E0,1.2911543E3,0E0,0E0,0E0,0E0],"parents":[2147483647,0,0,2,2,3,3,4,4],"right_children":[2,-1,4,6,8,-1,-1,-1,-1],"split_conditions":[1.5E0,-5.4496028E-2,3E0,1.054E2,5E0,-2.8882632E-3,-1.8463617E-4,8.08745E-3,2.4809865E-2],"split_indices":[22,0,22,3,22,0,0,0,0],"split_type":[0,0,0,0,0,0,0,0,0],"sum_hessian":[1.7841903E5,1.672698E4,1.6169206E5,5.849544E4,1.0319662E5,5.7155664E4,1.3397771E3,8.995485E4,1.324177E4],"tree_param":{"num_deleted":"0","num_feature":"23","num_nodes":"9","size_leaf_vector":"1"}},{"base_weights":[-2.3338092E-3,-5.4257255E-2,1.0500278E-1,-5.3727712E-2,1.953291E-1,-2.6909213E-3,3.2897163E-2,7.7040032E-3,2.3969721E-2],"categories":[],"categories_nodes":[],"categories_segments":[],"categories_sizes":[],"default_left":[0,0,0,0,0,0,0,0,0],"id":36,"left_children":[1,-1,3,5,7,-1,-1,-1,-1],"loss_changes":[2.0594094E4,0E0,2.311376E3,3.8099213E0,1.2038223E3,0E0,0E0,0E0,0E0],"parents":[2147483647,0,0,2,2,3,3,4,4],"right_children":[2,-1,4,6,8,-1,-1,-1,-1],"split_conditions":[1.5E0,-5.4257255E-2,3E0,1.267E2,5E0,-2.6909213E-3,3.2897163E-2,7.7040032E-3,2.3969721E-2],"split_indices":[22,0,22,13,22,0,0,0,0],"split_type":[0,0,0,0,0,0,0,0,0],"sum_hessian":[1.7718919E5,1.5979448E4,1.6120975E5,5.8466652E4,1.0274309E5,5.8460125E4,6.527184E0,8.9716875E4,1.3026218E4],"tree_param":{"num_deleted":"0","num_feature":"23","num_nodes":"9","size_leaf_vector":"1"}},{"base_weights":[-2.3243546E-3,-5.40321E-2,1.000611E-1,-5.1065557E-2,1.8638581E-1,1.8283766E-3,-2.5904495E-3,7.3379884E-3,2.314871E-2],"categories":[],"categories_nodes":[],"categories_segments":[],"categories_sizes":[],"default_left":[0,0,0,0,0,0,0,0,0],"id":37,"left_children":[1,-1,3,5,7,-1,-1,-1,-1],"loss_changes":[1.9432268E4,0E0,2.0971172E3,3.8092499E0,1.1212444E3,0E0,0E0,0E0,0E0],"parents":[2147483647,0,0,2,2,3,3,4,4],"right_children":[2,-1,4,6,8,-1,-1,-1,-1],"split_conditions":[1.5E0,-5.40321E-2,3E0,4.51E1,5E0,1.8283766E-3,-2.5904495E-3,7.3379884E-3,2.314871E-2],"split_indices":[22,0,22,13,22,0,0,0,0],"split_type":[0,0,0,0,0,0,0,0,0],"sum_hessian":[1.760085E5,1.5261865E4,1.6074662E5,5.8439086E4,1.0230754E5,4.9119083E2,5.7947895E4,8.948833E4,1.2819211E4],"tree_param":{"num_deleted":"0","num_feature":"23","num_nodes":"9","size_leaf_vector":"1"}},{"base_weights":[-2.3120467E-3,-5.3819682E-2,9.534093E-2,-4.8534777E-2,1.7782372E-1,-1.6793635E-3,-2.6426143E-3,6.9886707E-3,2.2346664E-2],"categories":[],"categories_nodes":[],"categories_segments":[],"categories_sizes":[],"default_left":[0,0,0,0,0,0,0,0,0],"id":38,"left_children":[1,-1,3,5,7,-1,-1,-1,-1],"loss_changes":[1.834243E4,0E0,1.9023702E3,3.7680054E0,1.0432661E3,0E0,0E0,0E0,0E0],"parents":[2147483647,0,0,2,2,3,3,4,4],"right_children":[2,-1,4,6,8,-1,-1,-1,-1],"split_conditions":[1.5E0,-5.3819682E-2,3E0,2.6E1,5E0,-1.6793635E-3,-2.6426143E-3,6.9886707E-3,2.2346664E-2],"split_indices":[22,0,22,10,22,0,0,0,0],"split_type":[0,0,0,0,0,0,0,0,0],"sum_hessian":[1.748756E5,1.4573389E4,1.6030222E5,5.8412688E4,1.0188952E5,1.3092909E4,4.531978E4,8.9269E4,1.2620524E4],"tree_param":{"num_deleted":"0","num_feature":"23","num_nodes":"9","size_leaf_vector":"1"}},{"base_weights":[-2.2968801E-3,-5.3619187E-2,9.0833254E-2,-4.612856E-2,1.6962852E-1,-3.068803E-3,-2.0968672E-3,6.6553378E-3,2.1563483E-2],"categories":[],"categories_nodes":[],"categories_segments":[],"categories_sizes":[],"default_left":[0,0,0,0,0,0,0,0,0],"id":39,"left_children":[1,-1,3,5,7,-1,-1,-1,-1],"loss_changes":[1.7319564E4,0E0,1.7253912E3,3.728775E0,9.6973584E2,0E0,0E0,0E0,0E0],"parents":[2147483647,0,0,2,2,3,3,4,4],"right_children":[2,-1,4,6,8,-1,-1,-1,-1],"split_conditions":[1.5E0,-5.3619187E-2,3E0,5.7E1,5E0,-3.068803E-3,-2.0968672E-3,6.6553378E-3,2.1563483E-2],"split_indices":[22,0,22,15,22,0,0,0,0],"split_type":[0,0,0,0,0,0,0,0,0],"sum_hessian":[1.7378919E5,1.3913166E4,1.5987603E5,5.8387453E4,1.0148857E5,1.2586079E4,4.5801375E4,8.905863E4,1.24299375E4],"tree_param":{"num_deleted":"0","num_feature":"23","num_nodes":"9","size_leaf_vector":"1"}},{"base_weights":[-2.2791056E-3,-5.3429868E-2,8.652916E-2,-4.384084E-2,1.6178612E-1,-2.0605747E-3,-3.4030713E-3,6.3372976E-3,2.0799063E-2],"categories":[],"categories_nodes":[],"categories_segments":[],"categories_sizes":[],"default_left":[0,0,0,0,0,0,0,0,0],"id":40,"left_children":[1,-1,3,5,7,-1,-1,-1,-1],"loss_changes":[1.6359041E4,0E0,1.5645924E3,3.7140884E0,9.0049536E2,0E0,0E0,0E0,0E0],"parents":[2147483647,0,0,2,2,3,3,4,4],"right_children":[2,-1,4,6,8,-1,-1,-1,-1],"split_conditions":[1.5E0,-5.3429868E-2,3E0,8.7E1,5E0,-2.0605747E-3,-3.4030713E-3,6.3372976E-3,2.0799063E-2],"split_indices":[22,0,22,15,22,0,0,0,0],"split_type":[0,0,0,0,0,0,0,0,0],"sum_hessian":[1.7274784E5,1.3280325E4,1.5946752E5,5.8363324E4,1.01104195E5,5.2650387E4,5.712937E3,8.885698E4,1.2247219E4],"tree_param":{"num_deleted":"0","num_feature":"23","num_nodes":"9","size_leaf_vector":"1"}},{"base_weights":[-2.2588626E-3,-5.3251036E-2,8.2420185E-2,-4.166582E-2,1.5428314E-1,-1.995278E-3,-3.8829525E-3,6.033899E-3,2.0053297E-2],"categories":[],"categories_nodes":[],"categories_segments":[],"categories_sizes":[],"default_left":[0,0,0,0,0,0,0,0,0],"id":41,"left_children":[1,-1,3,5,7,-1,-1,-1,-1],"loss_changes":[1.5456601E4,0E0,1.4185269E3,3.6932602E0,8.353801E2,0E0,0E0,0E0,0E0],"parents":[2147483647,0,0,2,2,3,3,4,4],"right_children":[2,-1,4,6,8,-1,-1,-1,-1],"split_conditions":[1.5E0,-5.3251036E-2,3E0,9.93E1,5E0,-1.995278E-3,-3.8829525E-3,6.033899E-3,2.0053297E-2],"split_indices":[22,0,22,13,22,0,0,0,0],"split_type":[0,0,0,0,0,0,0,0,0],"sum_hessian":[1.7175012E5,1.2673992E4,1.5907614E5,5.834025E4,1.0073588E5,5.5622137E4,2.7181106E3,8.8663766E4,1.2072122E4],"tree_param":{"num_deleted":"0","num_feature":"23","num_nodes":"9","size_leaf_vector":"1"}},{"base_weights":[-2.236271E-3,-5.3082038E-2,7.849818E-2,-3.9598037E-2,1.4710659E-1,-6.556691E-3,-1.9454429E-3,5.744509E-3,1.9326154E-2],"categories":[],"categories_nodes":[],"categories_segments":[],"categories_sizes":[],"default_left":[0,0,0,0,0,0,0,0,0],"id":42,"left_children":[1,-1,3,5,7,-1,-1,-1,-1],"loss_changes":[1.4608308E4,0E0,1.2858748E3,3.6739273E0,7.742329E2,0E0,0E0,0E0,0E0],"parents":[2147483647,0,0,2,2,3,3,4,4],"right_children":[2,-1,4,6,8,-1,-1,-1,-1],"split_conditions":[1.5E0,-5.3082038E-2,3E0,1.515E3,5E0,-6.556691E-3,-1.9454429E-3,5.744509E-3,1.9326154E-2],"split_indices":[22,0,22,4,22,0,0,0,0],"split_type":[0,0,0,0,0,0,0,0,0],"sum_hessian":[1.7079464E5,1.2093289E4,1.5870134E5,5.831819E4,1.0038316E5,4.3438605E2,5.7883805E4,8.8478734E4,1.1904416E4],"tree_param":{"num_deleted":"0","num_feature":"23","num_nodes":"9","size_leaf_vector":"1"}},{"base_weights":[-2.211516E-3,-5.292228E-2,7.475522E-2,-3.763227E-2,1.4024386E-1,-1.8586342E-3,-8.708317E-3,5.4685236E-3,1.8617531E-2],"categories":[],"categories_nodes":[],"categories_segments":[],"categories_sizes":[],"default_left":[0,0,0,0,0,0,0,0,0],"id":43,"left_children":[1,-1,3,5,7,-1,-1,-1,-1],"loss_changes":[1.3810535E4,0E0,1.1654309E3,3.6517105E0,7.168845E2,0E0,0E0,0E0,0E0],"parents":[2147483647,0,0,2,2,3,3,4,4],"right_children":[2,-1,4,6,8,-1,-1,-1,-1],"split_conditions":[1.5E0,-5.292228E-2,3E0,3.19E1,5E0,-1.8586342E-3,-8.708317E-3,5.4685236E-3,1.8617531E-2],"split_indices":[22,0,22,8,22,0,0,0,0],"split_type":[0,0,0,0,0,0,0,0,0],"sum_hessian":[1.6988E5,1.1537344E4,1.5834266E5,5.8297152E4,1.0004549E5,5.8102844E4,1.9430841E2,8.830164E4,1.1743858E4],"tree_param":{"num_deleted":"0","num_feature":"23","num_nodes":"9","size_leaf_vector":"1"}},{"base_weights":[-2.1848537E-3,-5.27712E-2,7.118367E-2,-3.5763476E-2,1.3368255E-1,-2.0303586E-3,-1.1407067E-3,5.2053523E-3,1.7927352E-2],"categories":[],"categories_nodes":[],"categories_segments":[],"categories_sizes":[],"default_left":[0,0,0,0,0,0,0,0,0],"id":44,"left_children":[1,-1,3,5,7,-1,-1,-1,-1],"loss_changes":[1.3059925E4,0E0,1.0560918E3,3.6544266E0,6.6317114E2,0E0,0E0,0E0,0E0],"parents":[2147483647,0,0,2,2,3,3,4,4],"right_children":[2,-1,4,6,8,-1,-1,-1,-1],"split_conditions":[1.5E0,-5.27712E-2,3E0,8.29E1,5E0,-2.0303586E-3,-1.1407067E-3,5.2053523E-3,1.7927352E-2],"split_indices":[22,0,22,3,22,0,0,0,0],"split_type":[0,0,0,0,0,0,0,0,0],"sum_hessian":[1.6900473E5,1.100529E4,1.5799944E5,5.827705E4,9.972239E4,4.241107E4,1.586598E4,8.813219E4,1.15902E4],"tree_param":{"num_deleted":"0","num_feature":"23","num_nodes":"9","size_leaf_vector":"1"}},{"base_weights":[-2.1563105E-3,-5.2628286E-2,6.7776315E-2,-3.3986896E-2,1.27411E-1,-1.4592017E-3,-2.3484607E-3,4.954437E-3,1.7255582E-2],"categories":[],"categories_nodes":[],"categories_segments":[],"categories_sizes":[],"default_left":[0,0,0,0,0,0,0,0,0],"id":45,"left_children":[1,-1,3,5,7,-1,-1,-1,-1],"loss_changes":[1.2353372E4,0E0,9.568564E2,3.631195E0,6.129321E2,0E0,0E0,0E0,0E0],"parents":[2147483647,0,0,2,2,3,3,4,4],"right_children":[2,-1,4,6,8,-1,-1,-1,-1],"split_conditions":[1.5E0,-5.2628286E-2,3E0,2.8E1,5E0,-1.4592017E-3,-2.3484607E-3,4.954437E-3,1.7255582E-2],"split_indices":[22,0,22,17,22,0,0,0,0],"split_type":[0,0,0,0,0,0,0,0,0],"sum_hessian":[1.6816747E5,1.0496269E4,1.576712E5,5.8257867E4,9.9413336E4,4.252778E4,1.5730088E4,8.7970125E4,1.1443217E4],"tree_param":{"num_deleted":"0","num_feature":"23","num_nodes":"9","size_leaf_vector":"1"}},{"base_weights":[-2.1260714E-3,-5.2493054E-2,6.452614E-2,4.3821927E-2,3.3204174E-1,-1.6149002E-3,4.7152457E-3,1.3563021E-2,1.7002147E-2],"categories":[],"categories_nodes":[],"categories_segments":[],"categories_sizes":[],"default_left":[0,0,0,0,0,0,0,0,0],"id":46,"left_children":[1,-1,3,5,7,-1,-1,-1,-1],"loss_changes":[1.1688009E4,0E0,8.7154626E2,5.6126044E2,5.4050293E0,0E0,0E0,0E0,0E0],"parents":[2147483647,0,0,2,2,3,3,4,4],"right_children":[2,-1,4,6,8,-1,-1,-1,-1],"split_conditions":[1.5E0,-5.2493054E-2,5E0,3E0,2.06E1,-1.6149002E-3,4.7152457E-3,1.3563021E-2,1.7002147E-2],"split_indices":[22,0,22,22,8,0,0,0,0],"split_type":[0,0,0,0,0,0,0,0,0],"sum_hessian":[1.6736683E5,1.0009435E4,1.5735739E5,1.4605473E5,1.1302656E4,5.823956E4,8.781519E4,1.3188489E3,9.983808E3],"tree_param":{"num_deleted":"0","num_feature":"23","num_nodes":"9","size_leaf_vector":"1"}},{"base_weights":[-2.0943354E-3,-5.2365053E-2,6.1426293E-2,4.1680295E-2,3.193373E-1,-1.5346286E-3,4.487244E-3,1.5899472E-2,3.42271E-2],"categories":[],"categories_nodes":[],"categories_segments":[],"categories_sizes":[],"default_left":[0,0,0,0,0,0,0,0,0],"id":47,"left_children":[1,-1,3,5,7,-1,-1,-1,-1],"loss_changes":[1.1061165E4,0E0,7.9984015E2,5.074923E2,5.2805176E0,0E0,0E0,0E0,0E0],"parents":[2147483647,0,0,2,2,3,3,4,4],"right_children":[2,-1,4,6,8,-1,-1,-1,-1],"split_conditions":[1.5E0,-5.2365053E-2,5E0,3E0,3.17E1,-1.5346286E-3,4.487244E-3,1.5899472E-2,3.42271E-2],"split_indices":[22,0,22,22,8,0,0,0,0],"split_type":[0,0,0,0,0,0,0,0,0],"sum_hessian":[1.6660145E5,9.543957E3,1.570575E5,1.4588919E5,1.1168304E4,5.8222098E4,8.766709E4,1.11291E4,3.9203346E1],"tree_param":{"num_deleted":"0","num_feature":"23","num_nodes":"9","size_leaf_vector":"1"}},{"base_weights":[-2.061003E-3,-5.224386E-2,5.847055E-2,3.964144E-2,3.0699563E-1,-1.4583273E-3,4.269963E-3,1.2366559E-2,1.574356E-2],"categories":[],"categories_nodes":[],"categories_segments":[],"categories_sizes":[],"default_left":[0,0,0,0,0,0,0,0,0],"id":48,"left_children":[1,-1,3,5,7,-1,-1,-1,-1],"loss_changes":[1.0470384E4,0E0,7.336034E2,4.5884042E2,5.1102295E0,0E0,0E0,0E0,0E0],"parents":[2147483647,0,0,2,2,3,3,4,4],"right_children":[2,-1,4,6,8,-1,-1,-1,-1],"split_conditions":[1.5E0,-5.224386E-2,5E0,3E0,2.06E1,-1.4583273E-3,4.269963E-3,1.2366559E-2,1.574356E-2],"split_indices":[22,0,22,22,8,0,0,0,0],"split_type":[0,0,0,0,0,0,0,0,0],"sum_hessian":[1.6587002E5,9.099022E3,1.5677098E5,1.4573106E5,1.1039925E4,5.8205438E4,8.7525625E4,1.2910948E3,9.74883E3],"tree_param":{"num_deleted":"0","num_feature":"23","num_nodes":"9","size_leaf_vector":"1"}},{"base_weights":[-2.0267523E-3,-5.212908E-2,5.5652104E-2,3.770029E-2,2.9501146E-1,-1.3858005E-3,4.0629E-3,1.4684193E-2,3.2983944E-2],"categories":[],"categories_nodes":[],"categories_segments":[],"categories_sizes":[],"default_left":[0,0,0,0,0,0,0,0,0],"id":49,"left_children":[1,-1,3,5,7,-1,-1,-1,-1],"loss_changes":[9.913362E3,0E0,6.724517E2,4.148186E2,5.092163E0,0E0,0E0,0E0,0E0],"parents":[2147483647,0,0,2,2,3,3,4,4],"right_children":[2,-1,4,6,8,-1,-1,-1,-1],"split_conditions":[1.5E0,-5.212908E-2,5E0,3E0,3.17E1,-1.3858005E-3,4.0629E-3,1.4684193E-2,3.2983944E-2],"split_indices":[22,0,22,22,8,0,0,0,0],"split_type":[0,0,0,0,0,0,0,0,0],"sum_hessian":[1.6517114E5,8.673835E3,1.5649731E5,1.4558005E5,1.091726E4,5.8189555E4,8.73905E4,1.0879458E4,3.7802162E1],"tree_param":{"num_deleted":"0","num_feature":"23","num_nodes":"9","size_leaf_vector":"1"}},{"base_weights":[-1.9913022E-3,-5.202035E-2,5.296537E-2,3.585245E-2,2.833854E-1,-1.316863E-3,3.8656075E-3,1.4104659E-2,3.2149777E-2],"categories":[],"categories_nodes":[],"categories_segments":[],"categories_sizes":[],"default_left":[0,0,0,0,0,0,0,0,0],"id":50,"left_children":[1,-1,3,5,7,-1,-1,-1,-1],"loss_changes":[9.387982E3,0E0,6.1605725E2,3.7499164E2,4.8380737E0,0E0,0E0,0E0,0E0],"parents":[2147483647,0,0,2,2,3,3,4,4],"right_children":[2,-1,4,6,8,-1,-1,-1,-1],"split_conditions":[1.5E0,-5.202035E-2,5E0,3E0,3.17E1,-1.316863E-3,3.8656075E-3,1.4104659E-2,3.2149777E-2],"split_indices":[22,0,22,22,8,0,0,0,0],"split_type":[0,0,0,0,0,0,0,0,0],"sum_hessian":[1.6450362E5,8.26762E3,1.5623602E5,1.4543588E5,1.0800128E4,5.8174406E4,8.726148E4,1.0763234E4,3.6893173E1],"tree_param":{"num_deleted":"0","num_feature":"23","num_nodes":"9","size_leaf_vector":"1"}},{"base_weights":[-1.9548074E-3,-5.1917322E-2,5.0404545E-2,3.4093793E-2,2.7211168E-1,-1.2513375E-3,3.6776643E-3,1.0753766E-2,1.4010513E-2],"categories":[],"categories_nodes":[],"categories_segments":[],"categories_sizes":[],"default_left":[0,0,0,0,0,0,0,0,0],"id":51,"left_children":[1,-1,3,5,7,-1,-1,-1,-1],"loss_changes":[8.892271E3,0E0,5.6407446E2,3.3896576E2,4.8773193E0,0E0,0E0,0E0,0E0],"parents":[2147483647,0,0,2,2,3,3,4,4],"right_children":[2,-1,4,6,8,-1,-1,-1,-1],"split_conditions":[1.5E0,-5.1917322E-2,5E0,3E0,2.07E1,-1.2513375E-3,3.6776643E-3,1.0753766E-2,1.4010513E-2],"split_indices":[22,0,22,22,8,0,0,0,0],"split_type":[0,0,0,0,0,0,0,0,0],"sum_hessian":[1.638662E5,7.8796187E3,1.5598658E5,1.452983E5,1.0688282E4,5.8159965E4,8.713833E4,1.3323568E3,9.355925E3],"tree_param":{"num_deleted":"0","num_feature":"23","num_nodes":"9","size_leaf_vector":"1"}},{"base_weights":[-1.9177098E-3,-5.181967E-2,4.7963742E-2,3.2419864E-2,2.6118594E-1,-1.1890606E-3,3.4986276E-3,1.2357931E-2,1.4704563E-2],"categories":[],"categories_nodes":[],"categories_segments":[],"categories_sizes":[],"default_left":[0,0,0,0,0,0,0,0,0],"id":52,"left_children":[1,-1,3,5,7,-1,-1,-1,-1],"loss_changes":[8.424381E3,0E0,5.1619214E2,3.0637903E2,4.8119507E0,0E0,0E0,0E0,0E0],"parents":[2147483647,0,0,2,2,3,3,4,4],"right_children":[2,-1,4,6,8,-1,-1,-1,-1],"split_conditions":[1.5E0,-5.181967E-2,5E0,3E0,8.13E1,-1.1890606E-3,3.4986276E-3,1.2357931E-2,1.4704563E-2],"split_indices":[22,0,22,22,3,0,0,0,0],"split_type":[0,0,0,0,0,0,0,0,0],"sum_hessian":[1.6325761E5,7.5090938E3,1.5574852E5,1.45167E5,1.0581508E4,5.8146203E4,8.70208E4,7.424847E3,3.156661E3],"tree_param":{"num_deleted":"0","num_feature":"23","num_nodes":"9","size_leaf_vector":"1"}},{"base_weights":[-1.8799515E-3,-5.1727105E-2,4.563782E-2,3.0826783E-2,2.5060552E-1,-1.129871E-3,3.3281003E-3,1.2466364E-2,3.0593295E-2],"categories":[],"categories_nodes":[],"categories_segments":[],"categories_sizes":[],"default_left":[0,0,0,0,0,0,0,0,0],"id":53,"left_children":[1,-1,3,5,7,-1,-1,-1,-1],"loss_changes":[7.9826104E3,0E0,4.721246E2,2.7690637E2,4.687134E0,0E0,0E0,0E0,0E0],"parents":[2147483647,0,0,2,2,3,3,4,4],"right_children":[2,-1,4,6,8,-1,-1,-1,-1],"split_conditions":[1.5E0,-5.1727105E-2,5E0,3E0,3.17E1,-1.129871E-3,3.3281003E-3,1.2466364E-2,3.0593295E-2],"split_indices":[22,0,22,22,8,0,0,0,0],"split_type":[0,0,0,0,0,0,0,0,0],"sum_hessian":[1.626767E5,7.1553335E3,1.5552138E5,1.4504175E5,1.0479616E4,5.8133086E4,8.690867E4,1.0444352E4,3.526496E1],"tree_param":{"num_deleted":"0","num_feature":"23","num_nodes":"9","size_leaf_vector":"1"}},{"base_weights":[-1.841579E-3,-5.1639326E-2,4.342171E-2,2.9310742E-2,2.4036722E-1,-1.0736157E-3,3.1656928E-3,9.138769E-3,1.2400875E-2],"categories":[],"categories_nodes":[],"categories_segments":[],"categories_sizes":[],"default_left":[0,0,0,0,0,0,0,0,0],"id":54,"left_children":[1,-1,3,5,7,-1,-1,-1,-1],"loss_changes":[7.5653623E3,0E0,4.316019E2,2.5025233E2,4.529541E0,0E0,0E0,0E0,0E0],"parents":[2147483647,0,0,2,2,3,3,4,4],"right_children":[2,-1,4,6,8,-1,-1,-1,-1],"split_conditions":[1.5E0,-5.1639326E-2,5E0,3E0,2.06E1,-1.0736157E-3,3.1656928E-3,9.138769E-3,1.2400875E-2],"split_indices":[22,0,22,22,8,0,0,0,0],"split_type":[0,0,0,0,0,0,0,0,0],"sum_hessian":[1.6212234E5,6.8176436E3,1.553047E5,1.449223E5,1.0382406E4,5.812059E4,8.680171E4,1.2203573E3,9.162049E3],"tree_param":{"num_deleted":"0","num_feature":"23","num_nodes":"9","size_leaf_vector":"1"}},{"base_weights":[-1.8028206E-3,-5.1556077E-2,4.1310392E-2,2.7868222E-2,2.304635E-1,-1.0201489E-3,3.011043E-3,1.1460623E-2,2.9456837E-2],"categories":[],"categories_nodes":[],"categories_segments":[],"categories_sizes":[],"default_left":[0,0,0,0,0,0,0,0,0],"id":55,"left_children":[1,-1,3,5,7,-1,-1,-1,-1],"loss_changes":[7.171156E3,0E0,3.943528E2,2.2615009E2,4.482483E0,0E0,0E0,0E0,0E0],"parents":[2147483647,0,0,2,2,3,3,4,4],"right_children":[2,-1,4,6,8,-1,-1,-1,-1],"split_conditions":[1.5E0,-5.1556077E-2,5E0,3E0,3.17E1,-1.0201489E-3,3.011043E-3,1.1460623E-2,2.9456837E-2],"split_indices":[22,0,22,22,8,0,0,0,0],"split_type":[0,0,0,0,0,0,0,0,0],"sum_hessian":[1.615934E5,6.495352E3,1.5509806E5,1.4480839E5,1.0289664E4,5.8108684E4,8.669971E4,1.0255532E4,3.4131996E1],"tree_param":{"num_deleted":"0","num_feature":"23","num_nodes":"9","size_leaf_vector":"1"}},{"base_weights":[-1.7637184E-3,-5.1477104E-2,3.929919E-2,2.6495548E-2,2.208926E-1,-9.6933864E-4,2.863781E-3,1.0356914E-2,1.2662165E-2],"categories":[],"categories_nodes":[],"categories_segments":[],"categories_sizes":[],"default_left":[0,0,0,0,0,0,0,0,0],"id":56,"left_children":[1,-1,3,5,7,-1,-1,-1,-1],"loss_changes":[6.798607E3,0E0,3.601502E2,2.0435638E2,4.4871216E0,0E0,0E0,0E0,0E0],"parents":[2147483647,0,0,2,2,3,3,4,4],"right_children":[2,-1,4,6,8,-1,-1,-1,-1],"split_conditions":[1.5E0,-5.1477104E-2,5E0,3E0,8.13E1,-9.6933864E-4,2.863781E-3,1.0356914E-2,1.2662165E-2],"split_indices":[22,0,22,22,3,0,0,0,0],"split_type":[0,0,0,0,0,0,0,0,0],"sum_hessian":[1.6108883E5,6.1878105E3,1.5490103E5,1.446998E5,1.020123E4,5.8097344E4,8.660245E4,7.1631357E3,3.0380952E3],"tree_param":{"num_deleted":"0","num_feature":"23","num_nodes":"9","size_leaf_vector":"1"}},{"base_weights":[-1.7243914E-3,-5.1402178E-2,3.7383564E-2,2.5189662E-2,2.1164575E-1,-9.210462E-4,2.7235828E-3,1.1415409E-2,9.26613E-3],"categories":[],"categories_nodes":[],"categories_segments":[],"categories_sizes":[],"default_left":[0,0,0,0,0,0,0,0,0],"id":57,"left_children":[1,-1,3,5,7,-1,-1,-1,-1],"loss_changes":[6.446423E3,0E0,3.2875235E2,1.8465242E2,4.3955383E0,0E0,0E0,0E0,0E0],"parents":[2147483647,0,0,2,2,3,3,4,4],"right_children":[2,-1,4,6,8,-1,-1,-1,-1],"split_conditions":[1.5E0,-5.1402178E-2,5E0,3E0,3.045E3,-9.210462E-4,2.7235828E-3,1.1415409E-2,9.26613E-3],"split_indices":[22,0,22,22,14,0,0,0,0],"split_type":[0,0,0,0,0,0,0,0,0],"sum_hessian":[1.6060758E5,5.894392E3,1.5471319E5,1.4459628E5,1.0116899E4,5.8086543E4,8.6509734E4,6.1906074E3,3.9262917E3],"tree_param":{"num_deleted":"0","num_feature":"23","num_nodes":"9","size_leaf_vector":"1"}},{"base_weights":[-1.6848736E-3,-5.1331062E-2,3.555924E-2,2.3947349E-2,2.0271891E-1,-8.751551E-4,2.5901229E-3,1.007443E-2,2.8048536E-2],"categories":[],"categories_nodes":[],"categories_segments":[],"categories_sizes":[],"default_left":[0,0,0,0,0,0,0,0,0],"id":58,"left_children":[1,-1,3,5,7,-1,-1,-1,-1],"loss_changes":[6.113404E3,0E0,2.9995407E2,1.6684003E2,4.311157E0,0E0,0E0,0E0,0E0],"parents":[2147483647,0,0,2,2,3,3,4,4],"right_children":[2,-1,4,6,8,-1,-1,-1,-1],"split_conditions":[1.5E0,-5.1331062E-2,5E0,3E0,3.17E1,-8.751551E-4,2.5901229E-3,1.007443E-2,2.8048536E-2],"split_indices":[22,0,22,22,8,0,0,0,0],"split_type":[0,0,0,0,0,0,0,0,0],"sum_hessian":[1.6014864E5,5.6144937E3,1.5453416E5,1.4449764E5,1.0036511E4,5.807626E4,8.6421375E4,1.0003718E4,3.2792664E1],"tree_param":{"num_deleted":"0","num_feature":"23","num_nodes":"9","size_leaf_vector":"1"}},{"base_weights":[-1.6450827E-3,-5.1263552E-2,3.382222E-2,2.2765668E-2,1.941075E-1,-8.315431E-4,2.4630937E-3,8.908476E-3,1.1061071E-2],"categories":[],"categories_nodes":[],"categories_segments":[],"categories_sizes":[],"default_left":[0,0,0,0,0,0,0,0,0],"id":59,"left_children":[1,-1,3,5,7,-1,-1,-1,-1],"loss_changes":[5.7984214E3,0E0,2.7356073E2,1.5073883E2,4.265045E0,0E0,0E0,0E0,0E0],"parents":[2147483647,0,0,2,2,3,3,4,4],"right_children":[2,-1,4,6,8,-1,-1,-1,-1],"split_conditions":[1.5E0,-5.1263552E-2,5E0,3E0,7.8E1,-8.315431E-4,2.4630937E-3,8.908476E-3,1.1061071E-2],"split_indices":[22,0,22,22,3,0,0,0,0],"split_type":[0,0,0,0,0,0,0,0,0],"sum_hessian":[1.5971106E5,5.347528E3,1.5436355E5,1.4440366E5,9.959886E3,5.806647E4,8.633719E4,6.277462E3,3.682424E3],"tree_param":{"num_deleted":"0","num_feature":"23","num_nodes":"9","size_leaf_vector":"1"}},{"base_weights":[-1.605498E-3,-5.1199466E-2,3.2168113E-2,2.164152E-2,1.8580244E-1,-7.900942E-4,2.342176E-3,9.590439E-3,5.7369154E-3],"categories":[],"categories_nodes":[],"categories_segments":[],"categories_sizes":[],"default_left":[0,0,0,0,0,0,0,0,0],"id":60,"left_children":[1,-1,3,5,7,-1,-1,-1,-1],"loss_changes":[5.5004204E3,0E0,2.4937843E2,1.3618347E2,4.198456E0,0E0,0E0,0E0,0E0],"parents":[2147483647,0,0,2,2,3,3,4,4],"right_children":[2,-1,4,6,8,-1,-1,-1,-1],"split_conditions":[1.5E0,-5.1199466E-2,5E0,3E0,2.83E1,-7.900942E-4,2.342176E-3,9.590439E-3,5.7369154E-3],"split_indices":[22,0,22,22,18,0,0,0,0],"split_type":[0,0,0,0,0,0,0,0,0],"sum_hessian":[1.5929389E5,5.092933E3,1.5420095E5,1.4431411E5,9.8868545E3,5.8057145E4,8.625696E4,9.114774E3,7.7207996E2],"tree_param":{"num_deleted":"0","num_feature":"23","num_nodes":"9","size_leaf_vector":"1"}},{"base_weights":[-1.566144E-3,-5.113861E-2,3.0593148E-2,2.0572135E-2,1.777981E-1,-7.507088E-4,2.2270882E-3,6.141083E-3,9.28332E-3],"categories":[],"categories_nodes":[],"categories_segments":[],"categories_sizes":[],"default_left":[0,0,0,0,0,0,0,0,0],"id":61,"left_children":[1,-1,3,5,7,-1,-1,-1,-1],"loss_changes":[5.2184165E3,0E0,2.2723775E2,1.2302733E2,4.2242737E0,0E0,0E0,0E0,0E0],"parents":[2147483647,0,0,2,2,3,3,4,4],"right_children":[2,-1,4,6,8,-1,-1,-1,-1],"split_conditions":[1.5E0,-5.113861E-2,5E0,3E0,2.07E1,-7.507088E-4,2.2270882E-3,6.141083E-3,9.28332E-3],"split_indices":[22,0,22,22,8,0,0,0,0],"split_type":[0,0,0,0,0,0,0,0,0],"sum_hessian":[1.5889623E5,4.850169E3,1.5404606E5,1.442288E5,9.817269E3,5.804827E4,8.618052E4,1.231221E3,8.586048E3],"tree_param":{"num_deleted":"0","num_feature":"23","num_nodes":"9","size_leaf_vector":"1"}},{"base_weights":[-1.5268179E-3,-5.1080804E-2,2.9093953E-2,1.9555122E-2,1.7008908E-1,-7.132798E-4,2.1175724E-3,9.334396E-3,7.1958313E-3],"categories":[],"categories_nodes":[],"categories_segments":[],"categories_sizes":[],"default_left":[0,0,0,0,0,0,0,0,0],"id":62,"left_children":[1,-1,3,5,7,-1,-1,-1,-1],"loss_changes":[4.9514927E3,0E0,2.0698059E2,1.11137405E2,4.209656E0,0E0,0E0,0E0,0E0],"parents":[2147483647,0,0,2,2,3,3,4,4],"right_children":[2,-1,4,6,8,-1,-1,-1,-1],"split_conditions":[1.5E0,-5.1080804E-2,5E0,3E0,3.045E3,-7.132798E-4,2.1175724E-3,9.334396E-3,7.1958313E-3],"split_indices":[22,0,22,22,14,0,0,0,0],"split_type":[0,0,0,0,0,0,0,0,0],"sum_hessian":[1.5851723E5,4.618714E3,1.5389852E5,1.4414755E5,9.750967E3,5.803982E4,8.6107734E4,5.9630273E3,3.78794E3],"tree_param":{"num_deleted":"0","num_feature":"23","num_nodes":"9","size_leaf_vector":"1"}},{"base_weights":[-1.4877183E-3,-5.1025894E-2,2.7666885E-2,1.8587872E-2,1.6266754E-1,-6.7771145E-4,2.0133604E-3,8.072342E-3,2.6213754E-2],"categories":[],"categories_nodes":[],"categories_segments":[],"categories_sizes":[],"default_left":[0,0,0,0,0,0,0,0,0],"id":63,"left_children":[1,-1,3,5,7,-1,-1,-1,-1],"loss_changes":[4.698783E3,0E0,1.8845523E2,1.00392136E2,4.192169E0,0E0,0E0,0E0,0E0],"parents":[2147483647,0,0,2,2,3,3,4,4],"right_children":[2,-1,4,6,8,-1,-1,-1,-1],"split_conditions":[1.5E0,-5.1025894E-2,5E0,3E0,3.17E1,-6.7771145E-4,2.0133604E-3,8.072342E-3,2.6213754E-2],"split_indices":[22,0,22,22,8,0,0,0,0],"split_type":[0,0,0,0,0,0,0,0,0],"sum_hessian":[1.5815606E5,4.3980664E3,1.53758E5,1.4407019E5,9.687816E3,5.803178E4,8.60384E4,9.656664E3,3.115245E1],"tree_param":{"num_deleted":"0","num_feature":"23","num_nodes":"9","size_leaf_vector":"1"}},{"base_weights":[-1.4488642E-3,-5.097371E-2,2.6308635E-2,1.766789E-2,1.5552887E-1,-6.4391474E-4,1.9141954E-3,8.102268E-3,4.5584114E-3],"categories":[],"categories_nodes":[],"categories_segments":[],"categories_sizes":[],"default_left":[0,0,0,0,0,0,0,0,0],"id":64,"left_children":[1,-1,3,5,7,-1,-1,-1,-1],"loss_changes":[4.459479E3,0E0,1.7152887E2,9.0681564E1,4.023529E0,0E0,0E0,0E0,0E0],"parents":[2147483647,0,0,2,2,3,3,4,4],"right_children":[2,-1,4,6,8,-1,-1,-1,-1],"split_conditions":[1.5E0,-5.097371E-2,5E0,3E0,3.767E3,-6.4391474E-4,1.9141954E-3,8.102268E-3,4.5584114E-3],"split_indices":[22,0,22,22,14,0,0,0,0],"split_type":[0,0,0,0,0,0,0,0,0],"sum_hessian":[1.5781194E5,4.187746E3,1.5362419E5,1.4399652E5,9.627675E3,5.8024133E4,8.597238E4,8.741124E3,8.865509E2],"tree_param":{"num_deleted":"0","num_feature":"23","num_nodes":"9","size_leaf_vector":"1"}},{"base_weights":[-1.4104334E-3,-5.092412E-2,2.5015876E-2,1.679307E-2,1.4866158E-1,-6.117997E-4,1.819852E-3,1.084037E-2,7.1225516E-3],"categories":[],"categories_nodes":[],"categories_segments":[],"categories_sizes":[],"default_left":[0,0,0,0,0,0,0,0,0],"id":65,"left_children":[1,-1,3,5,7,-1,-1,-1,-1],"loss_changes":[4.232823E3,0E0,1.560609E2,8.190735E1,4.0199585E0,0E0,0E0,0E0,0E0],"parents":[2147483647,0,0,2,2,3,3,4,4],"right_children":[2,-1,4,6,8,-1,-1,-1,-1],"split_conditions":[1.5E0,-5.092412E-2,5E0,3E0,2.1E1,-6.117997E-4,1.819852E-3,1.084037E-2,7.1225516E-3],"split_indices":[22,0,22,22,0,0,0,0,0],"split_type":[0,0,0,0,0,0,0,0,0],"sum_hessian":[1.5748406E5,3.9872903E3,1.5349677E5,1.4392638E5,9.570394E3,5.801685E4,8.590952E4,7.9652527E2,8.773868E3],"tree_param":{"num_deleted":"0","num_feature":"23","num_nodes":"9","size_leaf_vector":"1"}},{"base_weights":[-1.3722406E-3,-5.087697E-2,2.3785772E-2,1.5961278E-2,1.4206146E-1,-5.8127916E-4,1.7301027E-3,6.432829E-3,8.686792E-3],"categories":[],"categories_nodes":[],"categories_segments":[],"categories_sizes":[],"default_left":[0,0,0,0,0,0,0,0,0],"id":66,"left_children":[1,-1,3,5,7,-1,-1,-1,-1],"loss_changes":[4.0181047E3,0E0,1.4193958E2,7.3979355E1,4.0184326E0,0E0,0E0,0E0,0E0],"parents":[2147483647,0,0,2,2,3,3,4,4],"right_children":[2,-1,4,6,8,-1,-1,-1,-1],"split_conditions":[1.5E0,-5.087697E-2,5E0,3E0,8.13E1,-5.8127916E-4,1.7301027E-3,6.432829E-3,8.686792E-3],"split_indices":[22,0,22,22,3,0,0,0,0],"split_type":[0,0,0,0,0,0,0,0,0],"sum_hessian":[1.5717172E5,3.796255E3,1.5337547E5,1.4385961E5,9.515855E3,5.8009926E4,8.584968E4,6.689755E3,2.8261006E3],"tree_param":{"num_deleted":"0","num_feature":"23","num_nodes":"9","size_leaf_vector":"1"}},{"base_weights":[-1.3345651E-3,-5.083214E-2,2.2615159E-2,1.517024E-2,1.3572066E-1,-5.522812E-4,1.6447183E-3,7.086364E-3,3.246224E-3],"categories":[],"categories_nodes":[],"categories_segments":[],"categories_sizes":[],"default_left":[0,0,0,0,0,0,0,0,0],"id":67,"left_children":[1,-1,3,5,7,-1,-1,-1,-1],"loss_changes":[3.8146555E3,0E0,1.2905307E2,6.681613E1,4.015732E0,0E0,0E0,0E0,0E0],"parents":[2147483647,0,0,2,2,3,3,4,4],"right_children":[2,-1,4,6,8,-1,-1,-1,-1],"split_conditions":[1.5E0,-5.083214E-2,5E0,3E0,2.83E1,-5.522812E-4,1.6447183E-3,7.086364E-3,3.246224E-3],"split_indices":[22,0,22,22,18,0,0,0,0],"split_type":[0,0,0,0,0,0,0,0,0],"sum_hessian":[1.5687419E5,3.6142139E3,1.5325997E5,1.4379605E5,9.463922E3,5.8003336E4,8.579272E4,8.72284E3,7.4108185E2],"tree_param":{"num_deleted":"0","num_feature":"23","num_nodes":"9","size_leaf_vector":"1"}},{"base_weights":[-1.2974659E-3,-5.0789505E-2,2.1501217E-2,1.441804E-2,1.296306E-1,-5.247271E-4,1.5634934E-3,6.421423E-3,2.4589889E-2],"categories":[],"categories_nodes":[],"categories_segments":[],"categories_sizes":[],"default_left":[0,0,0,0,0,0,0,0,0],"id":68,"left_children":[1,-1,3,5,7,-1,-1,-1,-1],"loss_changes":[3.6218481E3,0E0,1.1729644E2,6.034419E1,4.0361176E0,0E0,0E0,0E0,0E0],"parents":[2147483647,0,0,2,2,3,3,4,4],"right_children":[2,-1,4,6,8,-1,-1,-1,-1],"split_conditions":[1.5E0,-5.0789505E-2,5E0,3E0,3.17E1,-5.247271E-4,1.5634934E-3,6.421423E-3,2.4589889E-2],"split_indices":[22,0,22,22,8,0,0,0,0],"split_type":[0,0,0,0,0,0,0,0,0],"sum_hessian":[1.565908E5,3.4407607E3,1.5315005E5,1.4373556E5,9.4144795E3,5.7997066E4,8.573849E4,9.384684E3,2.979583E1],"tree_param":{"num_deleted":"0","num_feature":"23","num_nodes":"9","size_leaf_vector":"1"}},{"base_weights":[-1.2606451E-3,-5.0748944E-2,2.044161E-2,1.3702894E-2,1.2378787E-1,-4.985433E-4,1.4862365E-3,3.3750967E-3,6.5665105E-3],"categories":[],"categories_nodes":[],"categories_segments":[],"categories_sizes":[],"default_left":[0,0,0,0,0,0,0,0,0],"id":69,"left_children":[1,-1,3,5,7,-1,-1,-1,-1],"loss_changes":[3.4390989E3,0E0,1.0658309E2,5.4497322E1,3.9682922E0,0E0,0E0,0E0,0E0],"parents":[2147483647,0,0,2,2,3,3,4,4],"right_children":[2,-1,4,6,8,-1,-1,-1,-1],"split_conditions":[1.5E0,-5.0748944E-2,5E0,3E0,2.06E1,-4.985433E-4,1.4862365E-3,3.3750967E-3,6.5665105E-3],"split_indices":[22,0,22,22,8,0,0,0,0],"split_type":[0,0,0,0,0,0,0,0,0],"sum_hessian":[1.5632092E5,3.2755037E3,1.5304542E5,1.43678E5,9.367427E3,5.79911E4,8.56869E4,1.1080874E3,8.259339E3],"tree_param":{"num_deleted":"0","num_feature":"23","num_nodes":"9","size_leaf_vector":"1"}},{"base_weights":[-1.2245426E-3,-5.071035E-2,1.9433372E-2,1.302292E-2,1.18180014E-1,-4.7366638E-4,1.4127542E-3,4.9399603E-3,7.0133633E-3],"categories":[],"categories_nodes":[],"categories_segments":[],"categories_sizes":[],"default_left":[0,0,0,0,0,0,0,0,0],"id":70,"left_children":[1,-1,3,5,7,-1,-1,-1,-1],"loss_changes":[3.2658499E3,0E0,9.681543E1,4.9215485E1,3.977295E0,0E0,0E0,0E0,0E0],"parents":[2147483647,0,0,2,2,3,3,4,4],"right_children":[2,-1,4,6,8,-1,-1,-1,-1],"split_conditions":[1.5E0,-5.071035E-2,5E0,3E0,3.77E1,-4.7366638E-4,1.4127542E-3,4.9399603E-3,7.0133633E-3],"split_indices":[22,0,22,22,6,0,0,0,0],"split_type":[0,0,0,0,0,0,0,0,0],"sum_hessian":[1.560639E5,3.1180684E3,1.5294584E5,1.4362322E5,9.322624E3,5.798543E4,8.563779E4,4.9684507E3,4.3541733E3],"tree_param":{"num_deleted":"0","num_feature":"23","num_nodes":"9","size_leaf_vector":"1"}},{"base_weights":[-1.1889774E-3,-5.067361E-2,1.847426E-2,1.2376458E-2,1.12801984E-1,-4.5002284E-4,1.342864E-3,6.230325E-3,3.8140193E-3],"categories":[],"categories_nodes":[],"categories_segments":[],"categories_sizes":[],"default_left":[0,0,0,0,0,0,0,0,0],"id":71,"left_children":[1,-1,3,5,7,-1,-1,-1,-1],"loss_changes":[3.101583E3,0E0,8.791785E1,4.444374E1,3.9917145E0,0E0,0E0,0E0,0E0],"parents":[2147483647,0,0,2,2,3,3,4,4],"right_children":[2,-1,4,6,8,-1,-1,-1,-1],"split_conditions":[1.5E0,-5.067361E-2,5E0,3E0,3.359E3,-4.5002284E-4,1.342864E-3,6.230325E-3,3.8140193E-3],"split_indices":[22,0,22,22,4,0,0,0,0],"split_type":[0,0,0,0,0,0,0,0,0],"sum_hessian":[1.5581919E5,2.9680957E3,1.528511E5,1.435711E5,9.279999E3,5.7980035E4,8.5591055E4,7.0113716E3,2.2686277E3],"tree_param":{"num_deleted":"0","num_feature":"23","num_nodes":"9","size_leaf_vector":"1"}},{"base_weights":[-1.153959E-3,-5.0638635E-2,1.7561961E-2,1.1761935E-2,1.07646145E-1,-4.2756117E-4,1.2764048E-3,-1.2898238E-2,5.4407152E-3],"categories":[],"categories_nodes":[],"categories_segments":[],"categories_sizes":[],"default_left":[0,0,0,0,0,0,0,0,0],"id":72,"left_children":[1,-1,3,5,7,-1,-1,-1,-1],"loss_changes":[2.9458079E3,0E0,7.98154E1,4.0134014E1,3.9745789E0,0E0,0E0,0E0,0E0],"parents":[2147483647,0,0,2,2,3,3,4,4],"right_children":[2,-1,4,6,8,-1,-1,-1,-1],"split_conditions":[1.5E0,-5.0638635E-2,5E0,3E0,4.39E1,-4.2756117E-4,1.2764048E-3,-1.2898238E-2,5.4407152E-3],"split_indices":[22,0,22,22,13,0,0,0,0],"split_type":[0,0,0,0,0,0,0,0,0],"sum_hessian":[1.5558617E5,2.825242E3,1.5276094E5,1.435215E5,9.239431E3,5.7974902E4,8.55466E4,2.8726637E1,9.210704E3],"tree_param":{"num_deleted":"0","num_feature":"23","num_nodes":"9","size_leaf_vector":"1"}},{"base_weights":[-1.1196344E-3,-5.0605316E-2,1.6694123E-2,1.11777615E-2,1.0270376E-1,-4.0621814E-4,1.2132059E-3,5.0763213E-3,2.3160709E-2],"categories":[],"categories_nodes":[],"categories_segments":[],"categories_sizes":[],"default_left":[0,0,0,0,0,0,0,0,0],"id":73,"left_children":[1,-1,3,5,7,-1,-1,-1,-1],"loss_changes":[2.798064E3,0E0,7.243759E1,3.6241264E1,3.8585968E0,0E0,0E0,0E0,0E0],"parents":[2147483647,0,0,2,2,3,3,4,4],"right_children":[2,-1,4,6,8,-1,-1,-1,-1],"split_conditions":[1.5E0,-5.0605316E-2,5E0,3E0,3.17E1,-4.0621814E-4,1.2132059E-3,5.0763213E-3,2.3160709E-2],"split_indices":[22,0,22,22,8,0,0,0,0],"split_type":[0,0,0,0,0,0,0,0,0],"sum_hessian":[1.5536433E5,2.6891785E3,1.5267514E5,1.4347433E5,9.200817E3,5.797002E4,8.5504305E4,9.1721455E3,2.8672207E1],"tree_param":{"num_deleted":"0","num_feature":"23","num_nodes":"9","size_leaf_vector":"1"}},{"base_weights":[-1.0858403E-3,-5.0573576E-2,1.5868802E-2,1.0622277E-2,9.797332E-2,-3.8594E-4,1.1530962E-3,8.291638E-3,4.590703E-3],"categories":[],"categories_nodes":[],"categories_segments":[],"categories_sizes":[],"default_left":[0,0,0,0,0,0,0,0,0],"id":74,"left_children":[1,-1,3,5,7,-1,-1,-1,-1],"loss_changes":[2.6579194E3,0E0,6.57311E1,3.272477E1,3.815445E0,0E0,0E0,0E0,0E0],"parents":[2147483647,0,0,2,2,3,3,4,4],"right_children":[2,-1,4,6,8,-1,-1,-1,-1],"split_conditions":[1.5E0,-5.0573576E-2,5E0,3E0,2.1E1,-3.8594E-4,1.1530962E-3,8.291638E-3,4.590703E-3],"split_indices":[22,0,22,22,0,0,0,0,0],"split_type":[0,0,0,0,0,0,0,0,0],"sum_hessian":[1.5515312E5,2.559591E3,1.5259353E5,1.4342944E5,9.164093E3,5.7965383E4,8.546406E4,7.6040704E2,8.403687E3],"tree_param":{"num_deleted":"0","num_feature":"23","num_nodes":"9","size_leaf_vector":"1"}},{"base_weights":[-1.0527486E-3,-5.0543327E-2,1.5083817E-2,1.0094292E-2,9.344194E-2,-3.666748E-4,1.0959454E-3,4.969772E-3,1.1767469E-3],"categories":[],"categories_nodes":[],"categories_segments":[],"categories_sizes":[],"default_left":[0,0,0,0,0,0,0,0,0],"id":75,"left_children":[1,-1,3,5,7,-1,-1,-1,-1],"loss_changes":[2.5249646E3,0E0,5.9628555E1,2.9549057E1,3.797554E0,0E0,0E0,0E0,0E0],"parents":[2147483647,0,0,2,2,3,3,4,4],"right_children":[2,-1,4,6,8,-1,-1,-1,-1],"split_conditions":[1.5E0,-5.0543327E-2,5E0,3E0,2.83E1,-3.666748E-4,1.0959454E-3,4.969772E-3,1.1767469E-3],"split_indices":[22,0,22,22,18,0,0,0,0],"split_type":[0,0,0,0,0,0,0,0,0],"sum_hessian":[1.549521E5,2.43618E3,1.525159E5,1.4338675E5,9.129152E3,5.7960965E4,8.542579E4,8.412312E3,7.1684094E2],"tree_param":{"num_deleted":"0","num_feature":"23","num_nodes":"9","size_leaf_vector":"1"}},{"base_weights":[-1.0201772E-3,-5.0514486E-2,1.4337423E-2,9.592588E-3,8.910397E-2,-3.4836316E-4,1.0416145E-3,5.269326E-3,3.176758E-3],"categories":[],"categories_nodes":[],"categories_segments":[],"categories_sizes":[],"default_left":[0,0,0,0,0,0,0,0,0],"id":76,"left_children":[1,-1,3,5,7,-1,-1,-1,-1],"loss_changes":[2.3988147E3,0E0,5.4079086E1,2.6681036E1,3.780571E0,0E0,0E0,0E0,0E0],"parents":[2147483647,0,0,2,2,3,3,4,4],"right_children":[2,-1,4,6,8,-1,-1,-1,-1],"split_conditions":[1.5E0,-5.0514486E-2,5E0,3E0,3.045E3,-3.4836316E-4,1.0416145E-3,5.269326E-3,3.176758E-3],"split_indices":[22,0,22,22,14,0,0,0,0],"split_type":[0,0,0,0,0,0,0,0,0],"sum_hessian":[1.5476072E5,2.3186565E3,1.5244206E5,1.4334616E5,9.095907E3,5.7956773E4,8.538938E4,5.555177E3,3.540731E3],"tree_param":{"num_deleted":"0","num_feature":"23","num_nodes":"9","size_leaf_vector":"1"}},{"base_weights":[-9.885285E-4,-5.048698E-2,1.3627378E-2,9.115416E-3,8.495325E-2,-3.3096908E-4,9.899362E-4,3.4670357E-3,5.5828798E-3],"categories":[],"categories_nodes":[],"categories_segments":[],"categories_sizes":[],"default_left":[0,0,0,0,0,0,0,0,0],"id":77,"left_children":[1,-1,3,5,7,-1,-1,-1,-1],"loss_changes":[2.2791055E3,0E0,4.9035797E1,2.4090248E1,3.771782E0,0E0,0E0,0E0,0E0],"parents":[2147483647,0,0,2,2,3,3,4,4],"right_children":[2,-1,4,6,8,-1,-1,-1,-1],"split_conditions":[1.5E0,-5.048698E-2,5E0,3E0,7.8E1,-3.3096908E-4,9.899362E-4,3.4670357E-3,5.5828798E-3],"split_indices":[22,0,22,22,3,0,0,0,0],"split_type":[0,0,0,0,0,0,0,0,0],"sum_hessian":[1.5457856E5,2.2067458E3,1.5237181E5,1.4330753E5,9.064283E3,5.795278E4,8.535475E4,5.722345E3,3.3419382E3],"tree_param":{"num_deleted":"0","num_feature":"23","num_nodes":"9","size_leaf_vector":"1"}},{"base_weights":[-9.5738505E-4,-5.0460733E-2,1.2952357E-2,8.662051E-3,8.098264E-2,-3.144437E-4,9.408197E-4,3.0992085E-3,5.133984E-3],"categories":[],"categories_nodes":[],"categories_segments":[],"categories_sizes":[],"default_left":[0,0,0,0,0,0,0,0,0],"id":78,"left_children":[1,-1,3,5,7,-1,-1,-1,-1],"loss_changes":[2.1654976E3,0E0,4.4452972E1,2.1751186E1,3.7180328E0,0E0,0E0,0E0,0E0],"parents":[2147483647,0,0,2,2,3,3,4,4],"right_children":[2,-1,4,6,8,-1,-1,-1,-1],"split_conditions":[1.5E0,-5.0460733E-2,5E0,3E0,3.77E1,-3.144437E-4,9.408197E-4,3.0992085E-3,5.133984E-3],"split_indices":[22,0,22,22,6,0,0,0,0],"split_type":[0,0,0,0,0,0,0,0,0],"sum_hessian":[1.5440519E5,2.1001863E3,1.52305E5,1.4327081E5,9.034195E3,5.794899E4,8.532182E4,4.818687E3,4.215509E3],"tree_param":{"num_deleted":"0","num_feature":"23","num_nodes":"9","size_leaf_vector":"1"}},{"base_weights":[-9.2705496E-4,-5.043567E-2,1.2310371E-2,7.6347506E-3,6.909501E-2,-2.987409E-4,8.5843785E-4,7.89605E-3,3.0781373E-3],"categories":[],"categories_nodes":[],"categories_segments":[],"categories_sizes":[],"default_left":[0,0,0,0,0,0,0,0,0],"id":79,"left_children":[1,-1,3,5,7,-1,-1,-1,-1],"loss_changes":[2.0576665E3,0E0,4.0420372E1,1.8251476E1,7.7392006E0,0E0,0E0,0E0,0E0],"parents":[2147483647,0,0,2,2,3,3,4,4],"right_children":[2,-1,4,6,8,-1,-1,-1,-1],"split_conditions":[1.5E0,-5.043567E-2,4.7E0,3E0,2.1E1,-2.987409E-4,8.5843785E-4,7.89605E-3,3.0781373E-3],"split_indices":[22,0,22,22,0,0,0,0,0],"split_type":[0,0,0,0,0,0,0,0,0],"sum_hessian":[1.5424019E5,1.9987269E3,1.5224147E5,1.4066067E5,1.1580799E4,5.794538E4,8.271528E4,9.037032E2,1.0677096E4],"tree_param":{"num_deleted":"0","num_feature":"23","num_nodes":"9","size_leaf_vector":"1"}},{"base_weights":[-8.972845E-4,-5.041173E-2,1.1699975E-2,7.797517E-3,7.391607E-2,-2.8382317E-4,8.477172E-4,7.478098E-3,3.4239267E-3],"categories":[],"categories_nodes":[],"categories_segments":[],"categories_sizes":[],"default_left":[0,0,0,0,0,0,0,0,0],"id":80,"left_children":[1,-1,3,5,7,-1,-1,-1,-1],"loss_changes":[1.9553092E3,0E0,3.6948887E1,1.766824E1,3.6843262E0,0E0,0E0,0E0,0E0],"parents":[2147483647,0,0,2,2,3,3,4,4],"right_children":[2,-1,4,6,8,-1,-1,-1,-1],"split_conditions":[1.5E0,-5.041173E-2,5E0,3E0,5.29E1,-2.8382317E-4,8.477172E-4,7.478098E-3,3.4239267E-3],"split_indices":[22,0,22,22,3,0,0,0,0],"split_type":[0,0,0,0,0,0,0,0,0],"sum_hessian":[1.5408452E5,1.9021287E3,1.5218239E5,1.4320131E5,8.981068E3,5.794195E4,8.525937E4,6.00502E2,8.380566E3],"tree_param":{"num_deleted":"0","num_feature":"23","num_nodes":"9","size_leaf_vector":"1"}},{"base_weights":[-8.681835E-4,-5.0388854E-2,1.1119758E-2,7.409449E-3,7.043113E-2,-2.6964478E-4,8.0561155E-4,8.0079073E-4,3.9137537E-3],"categories":[],"categories_nodes":[],"categories_segments":[],"categories_sizes":[],"default_left":[0,0,0,0,0,0,0,0,0],"id":81,"left_children":[1,-1,3,5,7,-1,-1,-1,-1],"loss_changes":[1.8581368E3,0E0,3.347683E1,1.595161E1,3.8214722E0,0E0,0E0,0E0,0E0],"parents":[2147483647,0,0,2,2,3,3,4,4],"right_children":[2,-1,4,6,8,-1,-1,-1,-1],"split_conditions":[1.5E0,-5.0388854E-2,5E0,3E0,2.07E1,-2.6964478E-4,8.0561155E-4,8.0079073E-4,3.9137537E-3],"split_indices":[22,0,22,22,8,0,0,0,0],"split_type":[0,0,0,0,0,0,0,0,0],"sum_hessian":[1.5393503E5,1.8101621E3,1.5212488E5,1.431698E5,8.95507E3,5.793869E4,8.523111E4,1.1286185E3,7.826452E3],"tree_param":{"num_deleted":"0","num_feature":"23","num_nodes":"9","size_leaf_vector":"1"}},{"base_weights":[-8.3999016E-4,-5.0366968E-2,1.0567909E-2,6.513775E-3,6.0116533E-2,-2.561775E-4,7.336392E-4,7.2685196E-3,2.6457547E-3],"categories":[],"categories_nodes":[],"categories_segments":[],"categories_sizes":[],"default_left":[0,0,0,0,0,0,0,0,0],"id":82,"left_children":[1,-1,3,5,7,-1,-1,-1,-1],"loss_changes":[1.7658774E3,0E0,3.0547173E1,1.3347126E1,7.0536423E0,0E0,0E0,0E0,0E0],"parents":[2147483647,0,0,2,2,3,3,4,4],"right_children":[2,-1,4,6,8,-1,-1,-1,-1],"split_conditions":[1.5E0,-5.0366968E-2,4.7E0,3E0,2.1E1,-2.561775E-4,7.336392E-4,7.2685196E-3,2.6457547E-3],"split_indices":[22,0,22,22,0,0,0,0,0],"split_type":[0,0,0,0,0,0,0,0,0],"sum_hessian":[1.5379277E5,1.7226091E3,1.5207016E5,1.4056969E5,1.1500469E4,5.7935594E4,8.263409E4,8.94289E2,1.060618E4],"tree_param":{"num_deleted":"0","num_feature":"23","num_nodes":"9","size_leaf_vector":"1"}},{"base_weights":[-8.123948E-4,-5.0346036E-2,1.0043271E-2,6.669465E-3,6.423118E-2,-6.713396E-4,5.612328E-4,3.1534955E-3,2.1314764E-2],"categories":[],"categories_nodes":[],"categories_segments":[],"categories_sizes":[],"default_left":[0,0,0,0,0,0,0,0,0],"id":83,"left_children":[1,-1,3,5,7,-1,-1,-1,-1],"loss_changes":[1.6782759E3,0E0,2.7791847E1,1.3100874E1,3.7193909E0,0E0,0E0,0E0,0E0],"parents":[2147483647,0,0,2,2,3,3,4,4],"right_children":[2,-1,4,6,8,-1,-1,-1,-1],"split_conditions":[1.5E0,-5.0346036E-2,5E0,2E0,3.17E1,-6.713396E-4,5.612328E-4,3.1534955E-3,2.1314764E-2],"split_indices":[22,0,22,22,8,0,0,0,0],"split_type":[0,0,0,0,0,0,0,0,0],"sum_hessian":[1.5365855E5,1.6392612E3,1.5201928E5,1.4311019E5,8.909094E3,2.6444098E4,1.16666086E5,8.881781E3,2.7312841E1],"tree_param":{"num_deleted":"0","num_feature":"23","num_nodes":"9","size_leaf_vector":"1"}},{"base_weights":[-7.853545E-4,-5.032599E-2,9.54417E-3,5.8608307E-3,5.473225E-2,-2.4331559E-4,6.6925684E-4,3.7319716E-3,1.2842233E-3],"categories":[],"categories_nodes":[],"categories_segments":[],"categories_sizes":[],"default_left":[0,0,0,0,0,0,0,0,0],"id":84,"left_children":[1,-1,3,5,7,-1,-1,-1,-1],"loss_changes":[1.5950889E3,0E0,2.5295532E1,1.1342506E1,6.621601E0,0E0,0E0,0E0,0E0],"parents":[2147483647,0,0,2,2,3,3,4,4],"right_children":[2,-1,4,6,8,-1,-1,-1,-1],"split_conditions":[1.5E0,-5.032599E-2,4.7E0,3E0,2.969E3,-2.4331559E-4,6.6925684E-4,3.7319716E-3,1.2842233E-3],"split_indices":[22,0,22,22,4,0,0,0,0],"split_type":[0,0,0,0,0,0,0,0,0],"sum_hessian":[1.5353797E5,1.5599194E3,1.5197805E5,1.4052481E5,1.1453231E4,5.793263E4,8.259219E4,6.7949263E3,4.6583057E3],"tree_param":{"num_deleted":"0","num_feature":"23","num_nodes":"9","size_leaf_vector":"1"}},{"base_weights":[-7.5913995E-4,-5.030678E-2,9.070091E-3,6.0013393E-3,5.857376E-2,-5.4526757E-3,3.3484574E-4,-1.4843694E-2,2.9866442E-3],"categories":[],"categories_nodes":[],"categories_segments":[],"categories_sizes":[],"default_left":[0,0,0,0,0,0,0,0,0],"id":85,"left_children":[1,-1,3,5,7,-1,-1,-1,-1],"loss_changes":[1.5160884E3,0E0,2.3080418E1,1.1450136E1,3.6716003E0,0E0,0E0,0E0,0E0],"parents":[2147483647,0,0,2,2,3,3,4,4],"right_children":[2,-1,4,6,8,-1,-1,-1,-1],"split_conditions":[1.5E0,-5.030678E-2,5E0,1.515E3,4.39E1,-5.4526757E-3,3.3484574E-4,-1.4843694E-2,2.9866442E-3],"split_indices":[22,0,22,4,13,0,0,0,0],"split_type":[0,0,0,0,0,0,0,0,0],"sum_hessian":[1.5341606E5,1.4843944E3,1.5193167E5,1.4306419E5,8.867482E3,8.5877466E2,1.422054E5,2.7993738E1,8.839488E3],"tree_param":{"num_deleted":"0","num_feature":"23","num_nodes":"9","size_leaf_vector":"1"}},{"base_weights":[-7.33797E-4,-5.028835E-2,8.618208E-3,5.269236E-3,4.984871E-2,-6.413974E-4,4.7323966E-4,6.582511E-3,2.1482757E-3],"categories":[],"categories_nodes":[],"categories_segments":[],"categories_sizes":[],"default_left":[0,0,0,0,0,0,0,0,0],"id":86,"left_children":[1,-1,3,5,7,-1,-1,-1,-1],"loss_changes":[1.4410548E3,0E0,2.0974792E1,1.0667577E1,6.419691E0,0E0,0E0,0E0,0E0],"parents":[2147483647,0,0,2,2,3,3,4,4],"right_children":[2,-1,4,6,8,-1,-1,-1,-1],"split_conditions":[1.5E0,-5.028835E-2,4.7E0,2E0,2.1E1,-6.413974E-4,4.7323966E-4,6.582511E-3,2.1482757E-3],"split_indices":[22,0,22,22,0,0,0,0,0],"split_type":[0,0,0,0,0,0,0,0,0],"sum_hessian":[1.5331686E5,1.4125043E3,1.5190434E5,1.4049378E5,1.1410563E4,2.6440941E4,1.1405284E5,8.842149E2,1.0526349E4],"tree_param":{"num_deleted":"0","num_feature":"23","num_nodes":"9","size_leaf_vector":"1"}},{"base_weights":[-7.0899015E-4,-5.0270665E-2,8.189469E-3,5.400063E-3,5.337238E-2,-5.1966626E-3,3.030727E-4,2.7948616E-3,-5.6326785E-3],"categories":[],"categories_nodes":[],"categories_segments":[],"categories_sizes":[],"default_left":[0,0,0,0,0,0,0,0,0],"id":87,"left_children":[1,-1,3,5,7,-1,-1,-1,-1],"loss_changes":[1.3697875E3,0E0,1.9140362E1,1.0344164E1,3.7079735E0,0E0,0E0,0E0,0E0],"parents":[2147483647,0,0,2,2,3,3,4,4],"right_children":[2,-1,4,6,8,-1,-1,-1,-1],"split_conditions":[1.5E0,-5.0270665E-2,5E0,1.515E3,6.02E1,-5.1966626E-3,3.030727E-4,2.7948616E-3,-5.6326785E-3],"split_indices":[22,0,22,4,6,0,0,0,0],"split_type":[0,0,0,0,0,0,0,0,0],"sum_hessian":[1.5321269E5,1.3440771E3,1.5186861E5,1.430391E5,8.82952E3,8.591465E2,1.4217995E5,8.697909E3,1.316108E2],"tree_param":{"num_deleted":"0","num_feature":"23","num_nodes":"9","size_leaf_vector":"1"}},{"base_weights":[-6.8478886E-4,-5.0253667E-2,7.781521E-3,4.428408E-3,4.2136997E-2,-2.349104E-4,6.326169E-4,1.016488E-3,3.5508436E-3],"categories":[],"categories_nodes":[],"categories_segments":[],"categories_sizes":[],"default_left":[0,0,0,0,0,0,0,0,0],"id":88,"left_children":[1,-1,3,5,7,-1,-1,-1,-1],"loss_changes":[1.3020906E3,0E0,1.7492004E1,1.0383672E1,8.502104E0,0E0,0E0,0E0,0E0],"parents":[2147483647,0,0,2,2,3,3,4,4],"right_children":[2,-1,4,6,8,-1,-1,-1,-1],"split_conditions":[1.5E0,-5.0253667E-2,4.5E0,2.33E1,4.2E1,-2.349104E-4,6.326169E-4,1.016488E-3,3.5508436E-3],"split_indices":[22,0,22,17,0,0,0,0,0],"split_type":[0,0,0,0,0,0,0,0,0],"sum_hessian":[1.5312278E5,1.2789476E3,1.5184384E5,1.3834266E5,1.3501188E4,6.55728E4,7.276986E4,7.6935107E3,5.8076777E3],"tree_param":{"num_deleted":"0","num_feature":"23","num_nodes":"9","size_leaf_vector":"1"}},{"base_weights":[-6.61445E-4,-5.0237324E-2,7.3936344E-3,4.8481096E-3,4.8777923E-2,-2.6773103E-4,5.897752E-4,2.7620008E-3,-7.2708726E-4],"categories":[],"categories_nodes":[],"categories_segments":[],"categories_sizes":[],"default_left":[0,0,0,0,0,0,0,0,0],"id":89,"left_children":[1,-1,3,5,7,-1,-1,-1,-1],"loss_changes":[1.2377804E3,0E0,1.5993363E1,1.0138039E1,3.6004314E0,0E0,0E0,0E0,0E0],"parents":[2147483647,0,0,2,2,3,3,4,4],"right_children":[2,-1,4,6,8,-1,-1,-1,-1],"split_conditions":[1.5E0,-5.0237324E-2,5E0,3E0,3.767E3,-2.6773103E-4,5.897752E-4,2.7620008E-3,-7.2708726E-4],"split_indices":[22,0,22,22,14,0,0,0,0],"split_type":[0,0,0,0,0,0,0,0,0],"sum_hessian":[1.530375E5,1.2169585E3,1.5182053E5,1.430243E5,8.7962295E3,5.7938227E4,8.508608E4,7.9817764E3,8.1445325E2],"tree_param":{"num_deleted":"0","num_feature":"23","num_nodes":"9","size_leaf_vector":"1"}},{"base_weights":[-6.385899E-4,-5.022158E-2,7.026081E-3,3.977084E-3,3.834457E-2,-5.294586E-3,2.3259179E-4,8.784244E-4,3.2952887E-3],"categories":[],"categories_nodes":[],"categories_segments":[],"categories_sizes":[],"default_left":[0,0,0,0,0,0,0,0,0],"id":90,"left_children":[1,-1,3,5,7,-1,-1,-1,-1],"loss_changes":[1.1766863E3,0E0,1.4493488E1,1.0254519E1,7.709421E0,0E0,0E0,0E0,0E0],"parents":[2147483647,0,0,2,2,3,3,4,4],"right_children":[2,-1,4,6,8,-1,-1,-1,-1],"split_conditions":[1.5E0,-5.022158E-2,4.5E0,1.515E3,4.2E1,-5.294586E-3,2.3259179E-4,8.784244E-4,3.2952887E-3],"split_indices":[22,0,22,4,0,0,0,0,0],"split_type":[0,0,0,0,0,0,0,0,0],"sum_hessian":[1.5293877E5,1.157961E3,1.5178081E5,1.3831622E5,1.3464584E4,8.433224E2,1.374729E5,7.6782397E3,5.7863447E3],"tree_param":{"num_deleted":"0","num_feature":"23","num_nodes":"9","size_leaf_vector":"1"}},{"base_weights":[-6.164706E-4,-5.0206404E-2,6.6758352E-3,-5.278519E-3,1.4057889E-2,-1.4399744E-3,-1.2677089E-4,1.9655221E-4,1.2158294E-3],"categories":[],"categories_nodes":[],"categories_segments":[],"categories_sizes":[],"default_left":[0,0,0,0,0,0,0,0,0],"id":91,"left_children":[1,-1,3,5,7,-1,-1,-1,-1],"loss_changes":[1.1186407E3,0E0,1.3392599E1,3.7381308E0,9.747044E0,0E0,0E0,0E0,0E0],"parents":[2147483647,0,0,2,2,3,3,4,4],"right_children":[2,-1,4,6,8,-1,-1,-1,-1],"split_conditions":[1.5E0,-5.0206404E-2,3E0,5.4E1,3E0,-1.4399744E-3,-1.2677089E-4,1.9655221E-4,1.2158294E-3],"split_indices":[22,0,22,5,19,0,0,0,0],"split_type":[0,0,0,0,0,0,0,0,0],"sum_hessian":[1.5286144E5,1.1018116E3,1.5175964E5,5.793733E4,9.3822305E4,6.0501636E3,5.1887168E4,4.7215273E4,4.660703E4],"tree_param":{"num_deleted":"0","num_feature":"23","num_nodes":"9","size_leaf_vector":"1"}},{"base_weights":[-5.950039E-4,-5.019176E-2,6.3435105E-3,4.0422142E-3,4.3892432E-2,-5.371858E-4,4.1121113E-4,2.4907766E-3,-1.2689458E-3],"categories":[],"categories_nodes":[],"categories_segments":[],"categories_sizes":[],"default_left":[0,0,0,0,0,0,0,0,0],"id":92,"left_children":[1,-1,3,5,7,-1,-1,-1,-1],"loss_changes":[1.0634902E3,0E0,1.311092E1,8.840504E0,3.596344E0,0E0,0E0,0E0,0E0],"parents":[2147483647,0,0,2,2,3,3,4,4],"right_children":[2,-1,4,6,8,-1,-1,-1,-1],"split_conditions":[1.5E0,-5.019176E-2,5E0,1.87E1,2.83E1,-5.371858E-4,4.1121113E-4,2.4907766E-3,-1.2689458E-3],"split_indices":[22,0,22,17,18,0,0,0,0],"split_type":[0,0,0,0,0,0,0,0,0],"sum_hessian":[1.5277653E5,1.0483741E3,1.5172816E5,1.4296711E5,8.761053E3,3.152072E4,1.1144638E5,8.071199E3,6.898531E2],"tree_param":{"num_deleted":"0","num_feature":"23","num_nodes":"9","size_leaf_vector":"1"}},{"base_weights":[-5.7418115E-4,-5.0177604E-2,6.027227E-3,3.8401817E-3,4.1772712E-2,-4.952872E-3,2.2209951E-4,5.870379E-3,1.8174753E-3],"categories":[],"categories_nodes":[],"categories_segments":[],"categories_sizes":[],"default_left":[0,0,0,0,0,0,0,0,0],"id":93,"left_children":[1,-1,3,5,7,-1,-1,-1,-1],"loss_changes":[1.0110858E3,0E0,1.1859989E1,8.853383E0,3.5835524E0,0E0,0E0,0E0,0E0],"parents":[2147483647,0,0,2,2,3,3,4,4],"right_children":[2,-1,4,6,8,-1,-1,-1,-1],"split_conditions":[1.5E0,-5.0177604E-2,5E0,2.24E1,5.29E1,-4.952872E-3,2.2209951E-4,5.870379E-3,1.8174753E-3],"split_indices":[22,0,22,6,3,0,0,0,0],"split_type":[0,0,0,0,0,0,0,0,0],"sum_hessian":[1.5270548E5,9.9751874E2,1.5170797E5,1.4296211E5,8.74586E3,8.3031726E2,1.4213178E5,5.837622E2,8.162098E3],"tree_param":{"num_deleted":"0","num_feature":"23","num_nodes":"9","size_leaf_vector":"1"}},{"base_weights":[-5.538512E-4,-5.0163902E-2,5.726792E-3,-5.385263E-3,1.2594107E-2,1.1537204E-3,-3.7869342E-4,1.4850729E-4,1.1173863E-3],"categories":[],"categories_nodes":[],"categories_segments":[],"categories_sizes":[],"default_left":[0,0,0,0,0,0,0,0,0],"id":94,"left_children":[1,-1,3,5,7,-1,-1,-1,-1],"loss_changes":[9.6128937E2,0E0,1.1575532E1,3.6090527E0,8.800243E0,0E0,0E0,0E0,0E0],"parents":[2147483647,0,0,2,2,3,3,4,4],"right_children":[2,-1,4,6,8,-1,-1,-1,-1],"split_conditions":[1.5E0,-5.0163902E-2,3E0,1.97E1,3E0,1.1537204E-3,-3.7869342E-4,1.4850729E-4,1.1173863E-3],"split_indices":[22,0,22,18,19,0,0,0,0],"split_type":[0,0,0,0,0,0,0,0,0],"sum_hessian":[1.5263817E5,9.4912225E2,1.5168905E5,5.793851E4,9.375054E4,4.13673E3,5.380178E4,4.7189566E4,4.656097E4],"tree_param":{"num_deleted":"0","num_feature":"23","num_nodes":"9","size_leaf_vector":"1"}},{"base_weights":[-5.3430436E-4,-5.0150614E-2,5.4415534E-3,2.8350244E-3,3.232099E-2,-2.8116265E-4,5.229199E-4,2.4986675E-3,3.7493715E-5],"categories":[],"categories_nodes":[],"categories_segments":[],"categories_sizes":[],"default_left":[0,0,0,0,0,0,0,0,0],"id":95,"left_children":[1,-1,3,5,7,-1,-1,-1,-1],"loss_changes":[9.139687E2,0E0,1.0625618E1,8.91488E0,7.4715366E0,0E0,0E0,0E0,0E0],"parents":[2147483647,0,0,2,2,3,3,4,4],"right_children":[2,-1,4,6,8,-1,-1,-1,-1],"split_conditions":[1.5E0,-5.0150614E-2,4.5E0,2.33E1,3.132E3,-2.8116265E-4,5.229199E-4,2.4986675E-3,3.7493715E-5],"split_indices":[22,0,22,17,14,0,0,0,0],"split_type":[0,0,0,0,0,0,0,0,0],"sum_hessian":[1.5256353E5,9.030665E2,1.5166047E5,1.3825484E5,1.3405621E4,6.5538695E4,7.271616E4,8.597768E3,4.8078525E3],"tree_param":{"num_deleted":"0","num_feature":"23","num_nodes":"9","size_leaf_vector":"1"}},{"base_weights":[-5.1522505E-4,-5.013771E-2,5.170229E-3,-1.2682215E-2,8.940347E-3,-2.2973043E-3,-2.9464354E-4,3.398808E-4,1.8786833E-3],"categories":[],"categories_nodes":[],"categories_segments":[],"categories_sizes":[],"default_left":[0,0,0,0,0,0,0,0,0],"id":96,"left_children":[1,-1,3,5,7,-1,-1,-1,-1],"loss_changes":[8.6899774E2,0E0,1.0206649E1,5.9711957E0,7.681449E0,0E0,0E0,0E0,0E0],"parents":[2147483647,0,0,2,2,3,3,4,4],"right_children":[2,-1,4,6,8,-1,-1,-1,-1],"split_conditions":[1.5E0,-5.013771E-2,2E0,5.7E1,5E0,-2.2973043E-3,-2.9464354E-4,3.398808E-4,1.8786833E-3],"split_indices":[22,0,22,15,22,0,0,0,0],"split_type":[0,0,0,0,0,0,0,0,0],"sum_hessian":[1.5250242E5,8.5923944E2,1.5164319E5,2.6440146E4,1.2520303E5,4.4808413E3,2.1959307E4,1.1648713E5,8.7159E3],"tree_param":{"num_deleted":"0","num_feature":"23","num_nodes":"9","size_leaf_vector":"1"}},{"base_weights":[-4.968594E-4,-5.0125163E-2,4.912612E-3,-5.1462865E-3,1.1133328E-2,-1.377809E-5,-9.156884E-4,3.4254658E-4,1.6272872E-3],"categories":[],"categories_nodes":[],"categories_segments":[],"categories_sizes":[],"default_left":[0,0,0,0,0,0,0,0,0],"id":97,"left_children":[1,-1,3,5,7,-1,-1,-1,-1],"loss_changes":[8.262583E2,0E0,9.487372E0,3.7157764E0,8.590166E0,0E0,0E0,0E0,0E0],"parents":[2147483647,0,0,2,2,3,3,4,4],"right_children":[2,-1,4,6,8,-1,-1,-1,-1],"split_conditions":[1.5E0,-5.0125163E-2,3E0,2.8E1,8.81E1,-1.377809E-5,-9.156884E-4,3.4254658E-4,1.6272872E-3],"split_indices":[22,0,22,17,13,0,0,0,0],"split_type":[0,0,0,0,0,0,0,0,0],"sum_hessian":[1.5243514E5,8.175336E2,1.5161761E5,5.793572E4,9.368189E4,4.2292504E4,1.5643212E4,7.806961E4,1.5612281E4],"tree_param":{"num_deleted":"0","num_feature":"23","num_nodes":"9","size_leaf_vector":"1"}},{"base_weights":[-4.7907647E-4,-5.011294E-2,4.6678185E-3,-1.1764496E-2,8.138673E-3,4.6784183E-4,-1.1154272E-3,-3.1366173E-4,6.1306445E-4],"categories":[],"categories_nodes":[],"categories_segments":[],"categories_sizes":[],"default_left":[0,0,0,0,0,0,0,0,0],"id":98,"left_children":[1,-1,3,5,7,-1,-1,-1,-1],"loss_changes":[7.856377E2,0E0,8.646086E0,5.887685E0,7.4362974E0,0E0,0E0,0E0,0E0],"parents":[2147483647,0,0,2,2,3,3,4,4],"right_children":[2,-1,4,6,8,-1,-1,-1,-1],"split_conditions":[1.5E0,-5.011294E-2,2E0,2E0,1.87E1,4.6784183E-4,-1.1154272E-3,-3.1366173E-4,6.1306445E-4],"split_indices":[22,0,22,9,17,0,0,0,0],"split_type":[0,0,0,0,0,0,0,0,0],"sum_hessian":[1.5236997E5,7.7784735E2,1.5159212E5,2.643529E4,1.25156836E5,8.802551E3,1.7632738E4,2.7838393E4,9.7318445E4],"tree_param":{"num_deleted":"0","num_feature":"23","num_nodes":"9","size_leaf_vector":"1"}},{"base_weights":[-4.6192834E-4,-5.0100993E-2,4.4348985E-3,2.58592E-3,3.4809466E-2,-4.6929726E-3,1.5850407E-4,-1.0599463E-3,2.1179186E-3],"categories":[],"categories_nodes":[],"categories_segments":[],"categories_sizes":[],"default_left":[0,0,0,0,0,0,0,0,0],"id":99,"left_children":[1,-1,3,5,7,-1,-1,-1,-1],"loss_changes":[7.4702924E2,0E0,8.512678E0,8.050061E0,3.6781254E0,0E0,0E0,0E0,0E0],"parents":[2147483647,0,0,2,2,3,3,4,4],"right_children":[2,-1,4,6,8,-1,-1,-1,-1],"split_conditions":[1.5E0,-5.0100993E-2,5E0,1.515E3,2.06E1,-4.6929726E-3,1.5850407E-4,-1.0599463E-3,2.1179186E-3],"split_indices":[22,0,22,4,8,0,0,0,0],"split_type":[0,0,0,0,0,0,0,0,0],"sum_hessian":[1.5231453E5,7.400837E2,1.5157445E5,1.4287817E5,8.696278E3,8.5922943E2,1.4201894E5,1.0326702E3,7.663608E3],"tree_param":{"num_deleted":"0","num_feature":"23","num_nodes":"9","size_leaf_vector":"1"}}]},"name":"gbtree"},"learner_model_param":{"base_score":"4.8200694E-1","boost_from_average":"1","num_class":"0","num_feature":"23","num_target":"1"},"objective":{"name":"binary:logistic","reg_loss_param":{"scale_pos_weight":"1"}}},"version":[3,0,2]}